{"learner":{"attributes":{"scikit_learn":"{\"_estimator_type\": \"classifier\"}"},"feature_names":["avg_sentiment","max_sentiment","min_sentiment","sentiment_std","pos_ratio","neg_ratio","sentiment_lag1","sentiment_lag2","sentiment_lag3","sentiment_roll3","sentiment_roll7","rsi","macd","macd_signal","bb_high","bb_low","bb_width","ema_20","atr","volume_ratio","price_change_1d","price_change_3d","price_change_5d","high_low_ratio"],"feature_types":["float","float","float","float","float","float","float","float","float","float","float","float","float","float","float","float","float","float","float","float","float","float","float","float"],"gradient_booster":{"model":{"cats":{"enc":[],"feature_segments":[],"sorted_idx":[]},"gbtree_model_param":{"num_parallel_tree":"1","num_trees":"200"},"iteration_indptr":[0,1,2,3,4,5,6,7,8,9,10,11,12,13,14,15,16,17,18,19,20,21,22,23,24,25,26,27,28,29,30,31,32,33,34,35,36,37,38,39,40,41,42,43,44,45,46,47,48,49,50,51,52,53,54,55,56,57,58,59,60,61,62,63,64,65,66,67,68,69,70,71,72,73,74,75,76,77,78,79,80,81,82,83,84,85,86,87,88,89,90,91,92,93,94,95,96,97,98,99,100,101,102,103,104,105,106,107,108,109,110,111,112,113,114,115,116,117,118,119,120,121,122,123,124,125,126,127,128,129,130,131,132,133,134,135,136,137,138,139,140,141,142,143,144,145,146,147,148,149,150,151,152,153,154,155,156,157,158,159,160,161,162,163,164,165,166,167,168,169,170,171,172,173,174,175,176,177,178,179,180,181,182,183,184,185,186,187,188,189,190,191,192,193,194,195,196,197,198,199,200],"tree_info":[0,0,0,0,0,0,0,0,0,0,0,0,0,0,0,0,0,0,0,0,0,0,0,0,0,0,0,0,0,0,0,0,0,0,0,0,0,0,0,0,0,0,0,0,0,0,0,0,0,0,0,0,0,0,0,0,0,0,0,0,0,0,0,0,0,0,0,0,0,0,0,0,0,0,0,0,0,0,0,0,0,0,0,0,0,0,0,0,0,0,0,0,0,0,0,0,0,0,0,0,0,0,0,0,0,0,0,0,0,0,0,0,0,0,0,0,0,0,0,0,0,0,0,0,0,0,0,0,0,0,0,0,0,0,0,0,0,0,0,0,0,0,0,0,0,0,0,0,0,0,0,0,0,0,0,0,0,0,0,0,0,0,0,0,0,0,0,0,0,0,0,0,0,0,0,0,0,0,0,0,0,0,0,0,0,0,0,0,0,0,0,0,0,0,0,0,0,0,0,0],"trees":[{"base_weights":[3.956144E-2,1.3467793E-1,-1.0464946E0,5.2119814E-2,8.55229E-1,-5.8069384E-1,-7.867017E-2,1.6226134E-1,-5.8710665E-1,-1.3524517E-2,1.1041847E0,-1.07774094E-1,-5.4775763E-2,-2.5575623E-2,1.35372E-2,-5.6145865E-2,-3.0484342E-3,6.578066E-2,1.2103341E-2,-3.805599E-2,3.596121E-2],"categories":[],"categories_nodes":[],"categories_segments":[],"categories_sizes":[],"default_left":[0,0,0,0,0,0,0,0,0,0,0,0,0,0,0,0,0,0,0,0,0],"id":0,"left_children":[1,3,5,7,9,11,-1,13,15,-1,17,19,-1,-1,-1,-1,-1,-1,-1,-1,-1],"loss_changes":[1.1810327E1,6.1869206E0,1.3469553E0,6.7872777E0,3.2983866E0,1.4581017E0,0E0,6.122073E0,3.930962E0,0E0,1.3150711E0,2.9698262E0,0E0,0E0,0E0,0E0,0E0,0E0,0E0,0E0,0E0],"parents":[2147483647,0,0,1,1,2,2,3,3,4,4,5,5,7,7,8,8,10,10,11,11],"right_children":[2,4,6,8,10,12,-1,14,16,-1,18,20,-1,-1,-1,-1,-1,-1,-1,-1,-1],"split_conditions":[5.2858984E2,5.1379126E2,1.0561668E0,4.931679E2,7.70782E-1,9.659714E0,-7.867017E-2,4.46522E0,9.116709E-1,-1.3524517E-2,2.2762034E0,1.0146995E0,-5.4775763E-2,-2.5575623E-2,1.35372E-2,-5.6145865E-2,-3.0484342E-3,6.578066E-2,1.2103341E-2,-3.805599E-2,3.596121E-2],"split_indices":[14,14,19,14,19,18,0,18,19,0,13,23,0,0,0,0,0,0,0,0,0],"split_type":[0,0,0,0,0,0,0,0,0,0,0,0,0,0,0,0,0,0,0,0,0],"sum_hessian":[1.11963974E2,1.0375328E2,8.210691E0,9.4049736E1,9.703545E0,5.4737945E0,2.7368972E0,8.086287E1,1.3186868E1,1.7416618E0,7.9618826E0,3.4833236E0,1.9904706E0,1.069878E1,7.016409E1,5.9714117E0,7.215456E0,5.9714117E0,1.9904706E0,1.9904706E0,1.4928529E0],"tree_param":{"num_deleted":"0","num_feature":"24","num_nodes":"21","size_leaf_vector":"1"}},{"base_weights":[-9.973233E-4,-3.097416E-1,1.4940046E-1,-1.2772809E0,-1.16872154E-1,1.0676852E0,-1.1218696E-2,-7.794358E-2,-2.789551E-2,3.2186952E-1,-7.9580307E-1,4.2004497E-3,1.2398399E0,-1.1060667E0,7.850457E-2,-8.334064E-3,3.7898134E-2,-5.6268353E-2,1.4783311E-2,3.096239E-2,7.679045E-2,-6.522938E-2,-1.416405E-2,1.2536203E-2,-2.0682544E-2],"categories":[],"categories_nodes":[],"categories_segments":[],"categories_sizes":[],"default_left":[0,0,0,0,0,1,0,0,0,0,0,0,0,0,0,0,0,0,0,0,0,0,0,0,0],"id":1,"left_children":[1,3,5,7,9,11,13,-1,-1,15,17,-1,19,21,23,-1,-1,-1,-1,-1,-1,-1,-1,-1,-1],"loss_changes":[5.185385E0,6.676539E0,1.1088239E1,3.4142017E-1,9.668807E0,1.7908344E0,6.462776E0,0E0,0E0,4.3676085E0,4.89826E0,0E0,7.8483486E-1,4.4427252E-1,5.267524E0,0E0,0E0,0E0,0E0,0E0,0E0,0E0,0E0,0E0,0E0],"parents":[2147483647,0,0,1,1,2,2,3,3,4,4,5,5,6,6,9,9,10,10,12,12,13,13,14,14],"right_children":[2,4,6,8,10,12,14,-1,-1,16,18,-1,20,22,24,-1,-1,-1,-1,-1,-1,-1,-1,-1,-1],"split_conditions":[-9.520684E-3,6.1819367E0,-6.8400707E-3,-1.7937256E-2,-1.2724492E-2,-2.9526515E0,-4.9113166E-3,-7.794358E-2,-2.789551E-2,-4.417525E-2,2.028151E-2,4.2004497E-3,1.01489315E1,7.141811E0,7.0901726E1,-8.334064E-3,3.7898134E-2,-5.6268353E-2,1.4783311E-2,3.096239E-2,7.679045E-2,-6.522938E-2,-1.416405E-2,1.2536203E-2,-2.0682544E-2],"split_indices":[21,16,20,22,22,13,20,0,0,22,22,0,16,13,11,0,0,0,0,0,0,0,0,0,0],"split_type":[0,0,0,0,0,0,0,0,0,0,0,0,0,0,0,0,0,0,0,0,0,0,0,0,0],"sum_hessian":[1.0967451E2,3.5578224E1,7.409628E1,4.9788837E0,3.059934E1,1.0190171E1,6.3906113E1,2.739529E0,2.2393548E0,1.8907057E1,1.1692283E1,1.7393973E0,8.450774E0,3.9824722E0,5.992364E1,9.208571E0,9.698486E0,8.956772E0,2.7355115E0,3.727394E0,4.72338E0,2.7366116E0,1.2458606E0,4.4753613E1,1.5170029E1],"tree_param":{"num_deleted":"0","num_feature":"24","num_nodes":"25","size_leaf_vector":"1"}},{"base_weights":[1.9888189E-2,7.860239E-2,-6.974302E-2,-6.057359E-1,1.5253828E-1,3.628954E-1,-1.1232791E0,1.0022596E0,5.0872613E-2,-3.6589514E-2,5.0442833E-2,-7.363146E-2,-1.1933017E-2,3.98421E-3,5.8875807E-2,6.0647495E-2,5.175919E-4],"categories":[],"categories_nodes":[],"categories_segments":[],"categories_sizes":[],"default_left":[0,0,0,0,0,0,0,0,0,0,0,0,0,0,0,0,0],"id":2,"left_children":[1,3,-1,5,7,9,11,13,15,-1,-1,-1,-1,-1,-1,-1,-1],"loss_changes":[9.3611765E0,5.5510497E0,0E0,5.7819104E0,8.429157E0,3.912631E0,1.8833418E0,1.5936031E0,4.165476E0,0E0,0E0,0E0,0E0,0E0,0E0,0E0,0E0],"parents":[2147483647,0,0,1,1,3,3,4,4,5,5,6,6,7,7,8,8],"right_children":[2,4,-1,6,8,10,12,14,16,-1,-1,-1,-1,-1,-1,-1,-1],"split_conditions":[5.1424457E2,4.46522E0,-6.974302E-2,2.082641E2,4.914397E0,8.4838206E-1,8.360346E0,1.0115658E0,-4.381308E-2,-3.6589514E-2,5.0442833E-2,-7.363146E-2,-1.1933017E-2,3.98421E-3,5.8875807E-2,6.0647495E-2,5.175919E-4],"split_indices":[17,18,0,17,18,19,16,23,20,0,0,0,0,0,0,0,0],"split_type":[0,0,0,0,0,0,0,0,0,0,0,0,0,0,0,0,0],"sum_hessian":[1.1037597E2,1.0688454E2,3.491429E0,9.720499E0,9.716404E1,3.4891095E0,6.2313895E0,9.436384E0,8.772765E1,1.2455142E0,2.2435954E0,3.990695E0,2.2406948E0,1.7386346E0,7.6977496E0,1.9810141E0,8.574664E1],"tree_param":{"num_deleted":"0","num_feature":"24","num_nodes":"17","size_leaf_vector":"1"}},{"base_weights":[-2.683475E-2,-1.09181724E-1,5.959535E-1,5.152242E-2,-5.6764007E-1,6.269789E-2,-1.3481305E-2,-6.9229084E-1,1.4619334E-1,-7.226715E-1,4.438609E-2,6.9840616E-1,-6.468419E-1,1.22952E-2,-7.2184056E-2,3.8910095E-2,-9.488721E-4,2.1802867E-2,-4.1547175E-2,5.149129E-2,1.0758384E-2,-4.8460975E-2,7.113432E-3],"categories":[],"categories_nodes":[],"categories_segments":[],"categories_sizes":[],"default_left":[0,0,0,0,0,0,0,0,0,0,0,0,0,0,0,0,0,0,0,0,0,0,0],"id":3,"left_children":[1,3,5,7,9,-1,11,13,15,17,-1,19,21,-1,-1,-1,-1,-1,-1,-1,-1,-1,-1],"loss_changes":[5.8881755E0,7.4801064E0,5.3963795E0,5.438735E0,6.5826387E0,0E0,4.0379753E0,6.5110097E0,7.1201115E0,3.4169712E0,0E0,4.551623E-1,1.3407058E0,0E0,0E0,0E0,0E0,0E0,0E0,0E0,0E0,0E0,0E0],"parents":[2147483647,0,0,1,1,2,2,3,3,4,4,6,6,7,7,8,8,9,9,11,11,12,12],"right_children":[2,4,6,8,10,-1,12,14,16,18,-1,20,22,-1,-1,-1,-1,-1,-1,-1,-1,-1,-1],"split_conditions":[2.3461699E1,1.4029218E1,3.1522879E1,4.46522E0,1.3410884E0,6.269789E-2,8.9912593E-1,2.0584814E2,5.2013593E0,-4.8224945E0,4.438609E-2,-1.2565996E-2,4.008913E-2,1.22952E-2,-7.2184056E-2,3.8910095E-2,-9.488721E-4,2.1802867E-2,-4.1547175E-2,5.149129E-2,1.0758384E-2,-4.8460975E-2,7.113432E-3],"split_indices":[16,16,16,18,19,0,19,15,18,12,0,21,20,0,0,0,0,0,0,0,0,0,0],"split_type":[0,0,0,0,0,0,0,0,0,0,0,0,0,0,0,0,0,0,0,0,0,0,0],"sum_hessian":[1.1254467E2,1.0012988E2,1.2414791E1,7.4798325E1,2.533156E1,5.460999E0,6.9537926E0,7.732532E0,6.706579E1,2.3347883E1,1.9836755E0,3.2255855E0,3.728207E0,3.7379801E0,3.994552E0,1.312663E1,5.393916E1,1.7364914E0,2.1611393E1,1.2424101E0,1.9831753E0,2.4848294E0,1.2433777E0],"tree_param":{"num_deleted":"0","num_feature":"24","num_nodes":"23","size_leaf_vector":"1"}},{"base_weights":[5.2328166E-2,7.793281E-1,-5.233476E-2,3.2620308E-1,6.9216E-2,2.5925528E-2,-1.0125773E0,-3.0158436E-2,6.062314E-1,-1.1907384E-1,4.8662266E-1,-6.729089E-2,-4.2035437E-1,5.1272213E-2,-2.1624932E-2,2.071591E-2,-1.506297E-2,-3.6244534E-2,3.5163652E-2,2.3390675E-2,-6.1337393E-2],"categories":[],"categories_nodes":[],"categories_segments":[],"categories_sizes":[],"default_left":[1,0,0,0,0,0,0,0,0,0,0,0,0,0,0,0,0,0,0,0,0],"id":4,"left_children":[1,3,5,7,-1,9,11,-1,13,15,17,-1,19,-1,-1,-1,-1,-1,-1,-1,-1],"loss_changes":[8.86703E0,3.5675392E0,7.716727E0,2.8877141E0,0E0,6.444076E0,9.6118116E-1,0E0,3.9034734E0,7.268947E0,6.5683565E0,0E0,3.6107144E0,0E0,0E0,0E0,0E0,0E0,0E0,0E0,0E0],"parents":[2147483647,0,0,1,1,2,2,3,3,5,5,6,6,8,8,9,9,10,10,12,12],"right_children":[2,4,6,8,-1,10,12,-1,14,16,18,-1,20,-1,-1,-1,-1,-1,-1,-1,-1],"split_conditions":[-4.4079432E0,9.791355E-1,5.312364E2,9.704097E0,6.9216E-2,1.1467345E0,-6.6743204E-3,-3.0158436E-2,1.8890932E1,1.0127468E0,4.46522E0,-6.729089E-2,-8.90357E-4,5.1272213E-2,-2.1624932E-2,2.071591E-2,-1.506297E-2,-3.6244534E-2,3.5163652E-2,2.3390675E-2,-6.1337393E-2],"split_indices":[13,19,14,16,0,19,21,0,18,23,18,0,21,0,0,0,0,0,0,0,0],"split_type":[0,0,0,0,0,0,0,0,0,0,0,0,0,0,0,0,0,0,0,0,0],"sum_hessian":[1.1499751E2,1.3660957E1,1.01336555E2,8.690875E0,4.970082E0,9.459964E1,6.736921E0,1.7451218E0,6.9457536E0,7.251718E1,2.2082453E1,3.4968047E0,3.2401161E0,4.957703E0,1.9880502E0,1.8138428E1,5.4378757E1,2.9940054E0,1.9088448E1,1.7416829E0,1.4984331E0],"tree_param":{"num_deleted":"0","num_feature":"24","num_nodes":"21","size_leaf_vector":"1"}},{"base_weights":[-1.1601332E-2,5.530572E-2,-5.076047E-2,5.6971308E-2,-7.9492815E-2,1.0921042E-1,-2.7345994E-1,9.467749E-3,-4.360808E-2,-7.181258E-3,-6.342907E-2],"categories":[],"categories_nodes":[],"categories_segments":[],"categories_sizes":[],"default_left":[0,0,0,0,0,0,0,0,0,0,0],"id":5,"left_children":[1,-1,3,-1,5,7,9,-1,-1,-1,-1],"loss_changes":[5.129298E0,0E0,3.9527924E0,0E0,4.1005173E0,4.655067E0,6.9402986E0,0E0,0E0,0E0,0E0],"parents":[2147483647,0,0,2,2,4,4,5,5,6,6],"right_children":[2,-1,4,-1,6,8,10,-1,-1,-1,-1],"split_conditions":[-7.914031E0,5.530572E-2,-8.896406E-2,5.6971308E-2,1.0677854E1,5.1424457E2,4.1352405E2,9.467749E-3,-4.360808E-2,-7.181258E-3,-6.342907E-2],"split_indices":[12,0,22,0,16,17,15,0,0,0,0],"split_type":[0,0,0,0,0,0,0,0,0,0,0],"sum_hessian":[1.1490798E2,2.9672549E0,1.1194073E2,1.7274532E0,1.1021327E2,5.6086155E1,5.4127117E1,5.2597767E1,3.4883893E0,4.889239E1,5.234725E0],"tree_param":{"num_deleted":"0","num_feature":"24","num_nodes":"11","size_leaf_vector":"1"}},{"base_weights":[2.9026857E-2,8.884962E-2,-6.786199E-1,1.4774987E-1,-4.7714916E-1,9.751955E-2,-1.0354426E0,4.132242E-2,6.488474E-1,-6.488963E-2,-1.8702307E-3,-3.9357405E-2,5.19375E-2,-1.1676822E-2,-1.1889437E0,-3.4960478E-3,3.2903522E-2,4.442897E-2,-3.7884455E-2,2.342749E-2,-3.3594027E-2,-7.2407566E-2,-1.1312032E-2],"categories":[],"categories_nodes":[],"categories_segments":[],"categories_sizes":[],"default_left":[0,0,0,0,0,0,0,0,0,0,0,0,0,0,0,0,0,0,0,0,0,0,0],"id":6,"left_children":[1,3,5,7,9,11,13,15,17,-1,19,-1,-1,-1,21,-1,-1,-1,-1,-1,-1,-1,-1],"loss_changes":[4.8704934E0,3.5927315E0,2.5859241E0,5.1173954E0,3.9739401E0,3.9317422E0,4.8956585E-1,5.5779057E0,6.348156E0,0E0,2.6652715E0,0E0,0E0,0E0,9.168339E-1,0E0,0E0,0E0,0E0,0E0,0E0,0E0,0E0],"parents":[2147483647,0,0,1,1,2,2,3,3,4,4,5,5,6,6,7,7,8,8,10,10,14,14],"right_children":[2,4,6,8,10,12,14,16,18,-1,20,-1,-1,-1,22,-1,-1,-1,-1,-1,-1,-1,-1],"split_conditions":[5.312364E2,7.284383E1,4.2895905E1,1.582945E-2,6.9175234E0,-1.3483167E-2,7.957226E-1,6.793362E1,1.1508724E1,-6.488963E-2,3.2911208E-2,-3.9357405E-2,5.19375E-2,-1.1676822E-2,5.5498037E0,-3.4960478E-3,3.2903522E-2,4.442897E-2,-3.7884455E-2,2.342749E-2,-3.3594027E-2,-7.2407566E-2,-1.1312032E-2],"split_indices":[14,11,11,20,18,20,19,11,12,0,21,0,0,0,12,0,0,0,0,0,0,0,0],"split_type":[0,0,0,0,0,0,0,0,0,0,0,0,0,0,0,0,0,0,0,0,0,0,0],"sum_hessian":[1.126266E2,1.0465386E2,7.9727426E0,9.545895E1,9.194909E0,2.7398605E0,5.232882E0,7.96291E1,1.5829855E1,2.7375348E0,6.4573746E0,1.4967552E0,1.2431054E0,1.245847E0,3.987035E0,6.821223E1,1.1416868E1,1.38393135E1,1.9905409E0,3.970403E0,2.4869714E0,2.743967E0,1.2430681E0],"tree_param":{"num_deleted":"0","num_feature":"24","num_nodes":"23","size_leaf_vector":"1"}},{"base_weights":[-6.681885E-2,-2.7474454E-2,-6.5627776E-2,4.337849E-1,-1.269497E-1,1.0223534E0,1.734726E-1,-2.2211695E-1,4.948722E-1,7.065993E-2,2.1422354E-3,2.0448007E-2,-2.3848873E-2,1.7246777E-3,-3.0528536E-2,5.262178E-2,-1.5254478E-2],"categories":[],"categories_nodes":[],"categories_segments":[],"categories_sizes":[],"default_left":[0,0,0,0,0,0,0,0,1,0,0,0,0,0,0,0,0],"id":7,"left_children":[1,3,-1,5,7,9,11,13,15,-1,-1,-1,-1,-1,-1,-1,-1],"loss_changes":[5.5681987E0,5.1878033E0,0E0,2.8977866E0,5.6011004E0,2.217534E0,2.5111356E0,8.111803E0,5.9527817E0,0E0,0E0,0E0,0E0,0E0,0E0,0E0,0E0],"parents":[2147483647,0,0,1,1,3,3,4,4,5,5,6,6,7,7,8,8],"right_children":[2,4,-1,6,8,10,12,14,16,-1,-1,-1,-1,-1,-1,-1,-1],"split_conditions":[5.151571E2,4.428783E1,-6.5627776E-2,8.819269E-1,2.3461699E1,4.4414215E-4,-1.511003E0,1.1113053E1,1.5285515E1,7.065993E-2,2.1422354E-3,2.0448007E-2,-2.3848873E-2,1.7246777E-3,-3.0528536E-2,5.262178E-2,-1.5254478E-2],"split_indices":[17,11,0,19,16,20,12,16,13,0,0,0,0,0,0,0,0],"split_type":[0,0,0,0,0,0,0,0,0,0,0,0,0,0,0,0,0],"sum_hessian":[1.1334291E2,1.1086353E2,2.4793742E0,1.9071175E1,9.179236E1,4.950543E0,1.4120632E1,8.016608E1,1.1626286E1,3.222095E0,1.7284478E0,1.0639865E1,3.4807677E0,4.882424E1,3.1341833E1,6.6651506E0,4.9611344E0],"tree_param":{"num_deleted":"0","num_feature":"24","num_nodes":"17","size_leaf_vector":"1"}},{"base_weights":[4.6515916E-3,5.4319763E-1,-1.1038279E-1,-4.3396854E-1,7.722245E-1,-5.117173E-1,2.9397184E-2,1.7161453E-2,-5.961866E-2,7.272377E-2,4.101793E-1,-1.2423773E0,-1.9689538E-1,-5.6596136E-1,1.1293012E-1,-5.155939E-3,4.14775E-2,-1.1464843E-2,-8.246528E-2,1.0049442E-2,-5.5632073E-2,-5.725695E-2,2.7575953E-2,4.164895E-2,-2.2185923E-4],"categories":[],"categories_nodes":[],"categories_segments":[],"categories_sizes":[],"default_left":[0,0,0,0,0,0,0,0,0,0,0,0,0,0,0,0,0,0,0,0,0,0,0,0,0],"id":8,"left_children":[1,3,5,7,9,11,13,-1,-1,-1,15,17,19,21,23,-1,-1,-1,-1,-1,-1,-1,-1,-1,-1],"loss_changes":[7.138593E0,4.873642E0,5.343374E0,3.056284E0,3.5503283E0,5.411731E0,3.6143737E0,0E0,0E0,0E0,2.7464178E0,2.596756E0,6.9182262E0,6.4245796E0,5.3651214E0,0E0,0E0,0E0,0E0,0E0,0E0,0E0,0E0,0E0,0E0],"parents":[2147483647,0,0,1,1,2,2,3,3,4,4,5,5,6,6,10,10,11,11,12,12,13,13,14,14],"right_children":[2,4,6,8,10,12,14,-1,-1,-1,16,18,20,22,24,-1,-1,-1,-1,-1,-1,-1,-1,-1,-1],"split_conditions":[4.418738E1,4.46522E0,-9.779413E-3,-2.6151298E-2,2.939202E2,2.3480153E0,1.0102644E0,1.7161453E-2,-5.961866E-2,7.272377E-2,9.779254E0,1.0166777E0,4.1732178E2,6.953929E0,4.827615E0,-5.155939E-3,4.14775E-2,-1.1464843E-2,-8.246528E-2,1.0049442E-2,-5.5632073E-2,-5.725695E-2,2.7575953E-2,4.164895E-2,-2.2185923E-4],"split_indices":[11,18,21,22,15,12,23,0,0,0,18,23,15,12,18,0,0,0,0,0,0,0,0,0,0],"split_type":[0,0,0,0,0,0,0,0,0,0,0,0,0,0,0,0,0,0,0,0,0,0,0,0,0],"sum_hessian":[1.13261246E2,1.9279608E1,9.3981636E1,3.4908226E0,1.5788784E1,2.3589855E1,7.0391785E1,1.9944173E0,1.4964054E0,4.4276943E0,1.1361091E1,6.2163196E0,1.7373535E1,7.950613E0,6.244117E1,5.447551E0,5.9135394E0,2.2294383E0,3.986881E0,1.2655391E1,4.7181454E0,5.2202597E0,2.730353E0,7.896838E0,5.454433E1],"tree_param":{"num_deleted":"0","num_feature":"24","num_nodes":"25","size_leaf_vector":"1"}},{"base_weights":[-8.396445E-4,5.322588E-1,-8.158094E-2,-2.2730175E-2,7.4046576E-1,-5.4138633E-3,-9.5832515E-1,3.3380824E-1,1.0673718E0,-1.0993931E-1,4.330016E-1,6.7214533E-3,-6.435701E-2,6.2177535E-2,-2.008972E-2,2.0573998E-2,6.770583E-2,-1.4457939E-3,-2.9277584E-2,3.2218836E-2,-2.7621944E-2],"categories":[],"categories_nodes":[],"categories_segments":[],"categories_sizes":[],"default_left":[0,0,0,0,0,0,0,0,0,0,0,0,0,0,0,0,0,0,0,0,0],"id":9,"left_children":[1,3,5,-1,7,9,11,13,15,17,19,-1,-1,-1,-1,-1,-1,-1,-1,-1,-1],"loss_changes":[4.926698E0,3.430128E0,6.6323347E0,0E0,1.3470511E0,4.284464E0,3.025652E0,5.2945766E0,6.9311476E-1,2.890757E0,4.10573E0,0E0,0E0,0E0,0E0,0E0,0E0,0E0,0E0,0E0,0E0],"parents":[2147483647,0,0,1,1,2,2,4,4,5,5,6,6,7,7,8,8,9,9,10,10],"right_children":[2,4,6,-1,8,10,12,14,16,18,20,-1,-1,-1,-1,-1,-1,-1,-1,-1,-1],"split_conditions":[4.2604923E1,4.4082365E0,5.251517E2,-2.2730175E-2,-4.122553E-2,1.1467345E0,2.1362786E0,-6.3502915E-2,-1.0100781E-2,5.733525E-2,1.2596076E1,6.7214533E-3,-6.435701E-2,6.2177535E-2,-2.008972E-2,2.0573998E-2,6.770583E-2,-1.4457939E-3,-2.9277584E-2,3.2218836E-2,-2.7621944E-2],"split_indices":[11,18,14,0,22,19,13,22,20,22,13,0,0,0,0,0,0,0,0,0,0],"split_type":[0,0,0,0,0,0,0,0,0,0,0,0,0,0,0,0,0,0,0,0,0],"sum_hessian":[1.1245096E2,1.4055653E1,9.839531E1,2.2426217E0,1.181303E1,9.145623E1,6.939077E0,6.165063E0,5.6479673E0,7.445433E1,1.70019E1,1.7417791E0,5.1972976E0,2.4475646E0,3.7174985E0,2.458794E0,3.1891735E0,6.452321E1,9.931121E0,1.4284092E1,2.7178075E0],"tree_param":{"num_deleted":"0","num_feature":"24","num_nodes":"21","size_leaf_vector":"1"}},{"base_weights":[-2.9558327E-2,5.5529125E-2,-7.126104E-2,3.9006755E-1,-1.5899786E-1,-4.7833973E-1,5.890145E-1,-5.580265E-1,-2.7175674E-2,1.9213324E-2,-5.7479E-2,1.0667817E-2,6.803812E-2,1.0225131E-2,-3.840824E-2,4.1842915E-2,-7.2255298E-3],"categories":[],"categories_nodes":[],"categories_segments":[],"categories_sizes":[],"default_left":[0,0,0,0,0,0,0,0,0,0,0,0,0,0,0,0,0],"id":10,"left_children":[1,-1,3,5,7,9,11,13,15,-1,-1,-1,-1,-1,-1,-1,-1],"loss_changes":[5.631906E0,0E0,4.660185E0,3.4680295E0,5.0429835E0,2.7516825E0,4.1897717E0,3.9751682E0,7.55556E0,0E0,0E0,0E0,0E0,0E0,0E0,0E0,0E0],"parents":[2147483647,0,0,2,2,3,3,4,4,5,5,6,6,7,7,8,8],"right_children":[2,-1,4,6,8,10,12,14,16,-1,-1,-1,-1,-1,-1,-1,-1],"split_conditions":[-3.736169E-2,5.5529125E-2,4.418738E1,4.433443E0,-1.002124E-2,-2.6151298E-2,-1.0566137E-2,5.100303E0,-7.1281074E-3,1.9213324E-2,-5.7479E-2,1.0667817E-2,6.803812E-2,1.0225131E-2,-3.840824E-2,4.1842915E-2,-7.2255298E-3],"split_indices":[20,0,11,18,21,22,21,18,20,0,0,0,0,0,0,0,0],"split_type":[0,0,0,0,0,0,0,0,0,0,0,0,0,0,0,0,0],"sum_hessian":[1.15784836E2,3.1811845E0,1.1260365E2,1.744265E1,9.5161E1,2.9894185E0,1.4453231E1,2.2827745E1,7.233326E1,1.4953203E0,1.4940982E0,1.0579825E1,3.8734062E0,4.9375753E0,1.789017E1,7.915162E0,6.441809E1],"tree_param":{"num_deleted":"0","num_feature":"24","num_nodes":"17","size_leaf_vector":"1"}},{"base_weights":[-3.4855332E-2,-3.154294E-1,1.3208799E-1,6.1905414E-1,-4.3234152E-1,5.9604846E-2,5.8041472E-2,5.2022435E-2,-1.7918857E-2,5.5744654E-1,-5.5220807E-1,3.547323E-1,-2.7993107E-1,6.1984003E-2,-3.3579517E-2,2.8709322E-2,-3.358488E-2,4.003208E-3,5.7783782E-2,8.922155E-3,-5.338928E-2],"categories":[],"categories_nodes":[],"categories_segments":[],"categories_sizes":[],"default_left":[0,0,0,0,0,0,0,0,0,0,0,0,1,0,0,0,0,0,0,0,0],"id":11,"left_children":[1,3,5,7,9,11,-1,-1,-1,13,15,17,19,-1,-1,-1,-1,-1,-1,-1,-1],"loss_changes":[5.092535E0,4.6946993E0,5.0245275E0,2.3981335E0,4.65065E0,6.599589E0,0E0,0E0,0E0,4.565255E0,4.847766E0,7.639163E0,1.1285942E1,0E0,0E0,0E0,0E0,0E0,0E0,0E0,0E0],"parents":[2147483647,0,0,1,1,2,2,3,3,4,4,5,5,9,9,10,10,11,11,12,12],"right_children":[2,4,6,8,10,12,-1,-1,-1,14,16,18,20,-1,-1,-1,-1,-1,-1,-1,-1],"split_conditions":[-6.0734972E-3,-3.3797882E-2,4.3115404E-2,1.0507377E0,2.172804E2,4.8360783E-3,5.8041472E-2,5.2022435E-2,-1.7918857E-2,1.9389412E2,1.0111132E0,9.912261E0,4.9680734E0,6.1984003E-2,-3.3579517E-2,2.8709322E-2,-3.358488E-2,4.003208E-3,5.7783782E-2,8.922155E-3,-5.338928E-2],"split_indices":[21,20,20,23,14,20,0,0,0,15,23,13,13,0,0,0,0,0,0,0,0],"split_type":[0,0,0,0,0,0,0,0,0,0,0,0,0,0,0,0,0,0,0,0,0],"sum_hessian":[1.06832504E2,3.9521343E1,6.7311165E1,3.9170623E0,3.5604282E1,6.3869015E1,3.4421487E0,2.6920018E0,1.2250605E0,3.45169E0,3.215259E1,3.4145073E1,2.972394E1,2.2140305E0,1.2376593E0,2.7187133E0,2.9433878E1,2.6244864E1,7.90021E0,1.928021E1,1.0443728E1],"tree_param":{"num_deleted":"0","num_feature":"24","num_nodes":"21","size_leaf_vector":"1"}},{"base_weights":[-6.2998263E-3,-1.7429346E-1,3.1864753E-1,4.1013998E-1,-3.0051285E-1,4.6827576E-1,-4.0350214E-1,6.059564E-2,6.376039E-2,-7.720987E-1,-1.0484626E-1,1.1698551E-1,1.0333023E0,5.070039E-1,-9.8573345E-1,4.379132E-2,-1.9461704E-2,-5.8415838E-2,-1.830615E-2,1.8749423E-2,-1.3860488E-2,2.4068912E-2,-5.1313736E-2,-3.7994698E-2,6.508442E-2,-1.1517859E-2,5.0695356E-2,-3.9671925E-3,-6.8683244E-2],"categories":[],"categories_nodes":[],"categories_segments":[],"categories_sizes":[],"default_left":[0,0,0,0,0,0,0,0,0,0,0,0,0,0,0,0,0,0,0,0,0,0,0,0,0,0,0,0,0],"id":12,"left_children":[1,3,5,7,9,11,13,15,-1,17,19,21,23,25,27,-1,-1,-1,-1,-1,-1,-1,-1,-1,-1,-1,-1,-1,-1],"loss_changes":[6.203454E0,5.647414E0,4.3744106E0,4.072449E0,5.6550746E0,6.339807E0,4.308955E0,4.31024E0,0E0,2.4791832E0,3.8332872E0,9.325263E0,6.933239E0,1.5279224E0,1.5515056E0,0E0,0E0,0E0,0E0,0E0,0E0,0E0,0E0,0E0,0E0,0E0,0E0,0E0,0E0],"parents":[2147483647,0,0,1,1,2,2,3,3,4,4,5,5,6,6,7,7,9,9,10,10,11,11,12,12,13,13,14,14],"right_children":[2,4,6,8,10,12,14,16,-1,18,20,22,24,26,28,-1,-1,-1,-1,-1,-1,-1,-1,-1,-1,-1,-1,-1,-1],"split_conditions":[1.0252731E0,4.418738E1,4.4411084E2,9.779254E0,5.1086998E1,3.008776E2,9.94419E0,8.7394327E-1,6.376039E-2,1.0147755E0,7.060945E0,3.241379E2,8.438664E-1,6.6980004E0,4.7666325E1,4.379132E-2,-1.9461704E-2,-5.8415838E-2,-1.830615E-2,1.8749423E-2,-1.3860488E-2,2.4068912E-2,-5.1313736E-2,-3.7994698E-2,6.508442E-2,-1.1517859E-2,5.0695356E-2,-3.9671925E-3,-6.8683244E-2],"split_indices":[23,11,17,18,11,15,18,19,0,23,16,17,19,16,11,0,0,0,0,0,0,0,0,0,0,0,0,0,0],"split_type":[0,0,0,0,0,0,0,0,0,0,0,0,0,0,0,0,0,0,0,0,0,0,0,0,0,0,0,0,0],"sum_hessian":[1.11621704E2,7.3886795E1,3.7734905E1,1.272355E1,6.116325E1,3.1549461E1,6.185443E0,9.824039E0,2.8995106E0,1.7071758E1,4.409149E1,2.0198578E1,1.13508835E1,2.4629827E0,3.7224605E0,3.1564882E0,6.6675515E0,7.689388E0,9.38237E0,1.1341856E1,3.2749634E1,1.575569E1,4.442888E0,1.2392962E0,1.0111588E1,1.2256558E0,1.2373269E0,1.4767083E0,2.245752E0],"tree_param":{"num_deleted":"0","num_feature":"24","num_nodes":"29","size_leaf_vector":"1"}},{"base_weights":[-2.6096312E-2,3.3315447E-1,-1.899027E-1,1.4151987E-1,9.507497E-1,4.5817515E-1,-2.782907E-1,-4.215877E-1,4.171236E-1,1.1055013E0,1.9630585E-3,-2.6985422E-1,1.0693868E0,1.290835E-1,-4.052423E-1,1.437857E-2,-4.797885E-2,-4.2564515E-2,2.9591663E-2,6.9860205E-2,1.6928298E-2,3.1815488E-2,-3.987129E-2,4.0363492E-3,6.6963926E-2,-2.85626E-2,3.8997617E-2,-2.9983193E-2,4.6431865E-3],"categories":[],"categories_nodes":[],"categories_segments":[],"categories_sizes":[],"default_left":[0,0,1,0,0,0,0,0,0,0,0,0,0,0,0,0,0,0,0,0,0,0,0,0,0,0,0,0,0],"id":13,"left_children":[1,3,5,7,9,11,13,15,17,19,-1,21,23,25,27,-1,-1,-1,-1,-1,-1,-1,-1,-1,-1,-1,-1,-1,-1],"loss_changes":[6.5566006E0,3.9981878E0,4.505175E0,4.494075E0,1.0983324E0,4.5380735E0,3.562479E0,3.9540272E0,4.755069E0,1.0667276E0,0E0,2.9727635E0,1.330884E0,8.141943E0,5.090375E0,0E0,0E0,0E0,0E0,0E0,0E0,0E0,0E0,0E0,0E0,0E0,0E0,0E0,0E0],"parents":[2147483647,0,0,1,1,2,2,3,3,4,4,5,5,6,6,7,7,8,8,9,9,11,11,12,12,13,13,14,14],"right_children":[2,4,6,8,10,12,14,16,18,20,-1,22,24,26,28,-1,-1,-1,-1,-1,-1,-1,-1,-1,-1,-1,-1,-1,-1],"split_conditions":[-1.0444367E-2,1.0385548E0,-4.4079432E0,-4.417525E-2,2.1267206E1,1.0171199E0,1.0128995E0,4.16747E1,4.3913064E0,-3.299984E-2,1.9630585E-3,1.2875132E-3,2.6558374E2,6.507852E1,1.1221329E0,1.437857E-2,-4.797885E-2,-4.2564515E-2,2.9591663E-2,6.9860205E-2,1.6928298E-2,3.1815488E-2,-3.987129E-2,4.0363492E-3,6.6963926E-2,-2.85626E-2,3.8997617E-2,-2.9983193E-2,4.6431865E-3],"split_indices":[22,23,13,22,18,23,23,11,18,21,0,20,17,11,19,0,0,0,0,0,0,0,0,0,0,0,0,0,0],"split_type":[0,0,0,0,0,0,0,0,0,0,0,0,0,0,0,0,0,0,0,0,0,0,0,0,0,0,0,0,0],"sum_hessian":[1.09341576E2,3.3918858E1,7.542272E1,2.6824566E1,7.09429E0,8.549854E0,6.687287E1,8.640596E0,1.818397E1,5.8826814E0,1.2116082E0,4.156928E0,4.3929267E0,1.58844795E1,5.0988388E1,3.9281342E0,4.7124624E0,1.7325848E0,1.6451385E1,3.6663783E0,2.2163033E0,1.453782E0,2.703146E0,1.2206354E0,3.172291E0,7.710403E0,8.174076E0,3.652716E1,1.4461228E1],"tree_param":{"num_deleted":"0","num_feature":"24","num_nodes":"29","size_leaf_vector":"1"}},{"base_weights":[3.4534324E-2,-9.15011E-3,4.8508883E-2,8.2484645E-1,-4.454783E-2,5.5782188E-2,2.0667545E-3,7.741311E-2,-2.8894088E-1,8.493566E-4,4.7526043E-2,-3.2707796E-2,1.0880976E-2],"categories":[],"categories_nodes":[],"categories_segments":[],"categories_sizes":[],"default_left":[0,0,0,0,0,0,0,0,0,0,0,0,0],"id":14,"left_children":[1,3,-1,5,7,-1,-1,9,11,-1,-1,-1,-1],"loss_changes":[4.474998E0,3.147867E0,0E0,9.4318295E-1,3.063893E0,0E0,0E0,3.6168427E0,6.4661045E0,0E0,0E0,0E0,0E0],"parents":[2147483647,0,0,1,1,3,3,4,4,7,7,8,8],"right_children":[2,4,-1,6,8,-1,-1,10,12,-1,-1,-1,-1],"split_conditions":[4.3115404E-2,-3.736169E-2,4.8508883E-2,4.73332E2,1.4029218E1,5.5782188E-2,2.0667545E-3,1.4671781E1,2.111739E1,8.493566E-4,4.7526043E-2,-3.2707796E-2,1.0880976E-2],"split_indices":[20,20,0,14,16,0,0,13,16,0,0,0,0],"split_type":[0,0,0,0,0,0,0,0,0,0,0,0,0],"sum_hessian":[1.08268105E2,1.0438468E2,3.8834167E0,3.3420177E0,1.0104266E2,2.1282306E0,1.213787E0,6.7860886E1,3.318178E1,6.442184E1,3.4390464E0,1.9111551E1,1.40702305E1],"tree_param":{"num_deleted":"0","num_feature":"24","num_nodes":"13","size_leaf_vector":"1"}},{"base_weights":[-9.872015E-3,-6.1019444E-1,4.9544387E-2,2.335442E-1,-1.1338617E0,1.22478E0,-3.3960156E-2,4.6688184E-2,-3.0737747E-2,-7.166911E-2,-1.54420575E-2,7.2009794E-2,1.3043064E-2,3.551871E-2,-5.361352E-1,1.0169163E-2,-1.3893229E-2,-6.887009E-2,-1.1413115E-3],"categories":[],"categories_nodes":[],"categories_segments":[],"categories_sizes":[],"default_left":[0,0,0,0,0,0,0,0,0,0,0,0,0,0,0,0,0,0,0],"id":15,"left_children":[1,3,5,7,9,11,13,-1,-1,-1,-1,-1,-1,15,17,-1,-1,-1,-1],"loss_changes":[4.038586E0,4.769688E0,1.0167485E1,3.3859036E0,1.1541281E0,1.0512266E0,3.414197E0,0E0,0E0,0E0,0E0,0E0,0E0,4.6027E0,5.1026006E0,0E0,0E0,0E0,0E0],"parents":[2147483647,0,0,1,1,2,2,3,3,4,4,5,5,6,6,13,13,14,14],"right_children":[2,4,6,8,10,12,14,-1,-1,-1,-1,-1,-1,16,18,-1,-1,-1,-1],"split_conditions":[4.46522E0,2.095916E2,4.827615E0,2.4471835E-3,4.3913064E0,2.4736717E2,7.3096306E1,4.6688184E-2,-3.0737747E-2,-7.166911E-2,-1.54420575E-2,7.2009794E-2,1.3043064E-2,1.4029218E1,7.016927E0,1.0169163E-2,-1.3893229E-2,-6.887009E-2,-1.1413115E-3],"split_indices":[18,17,18,20,18,17,11,0,0,0,0,0,0,16,18,0,0,0,0],"split_type":[0,0,0,0,0,0,0,0,0,0,0,0,0,0,0,0,0,0,0],"sum_hessian":[1.1137642E2,9.195771E0,1.0218065E2,3.7338195E0,5.4619517E0,5.871961E0,9.6308685E1,1.9902447E0,1.7435747E0,3.4661791E0,1.9957727E0,4.3955426E0,1.4764185E0,8.541965E1,1.0889039E1,5.5852905E1,2.9566742E1,3.488435E0,7.4006042E0],"tree_param":{"num_deleted":"0","num_feature":"24","num_nodes":"19","size_leaf_vector":"1"}},{"base_weights":[9.306515E-3,-7.723844E-2,5.065176E-1,9.164833E-3,-6.5708166E-1,-4.780631E-1,7.200183E-1,-9.1172956E-2,4.3836898E-1,3.3221047E-2,-9.0818846E-1,2.3885187E-2,-6.0197223E-2,1.1880591E0,1.5534718E-2,-8.219848E-3,3.4119353E-2,6.403008E-2,9.061056E-3,-6.275759E-2,7.597107E-3,2.0743202E-2,7.254009E-2,4.6218645E-2,-3.8283627E-2],"categories":[],"categories_nodes":[],"categories_segments":[],"categories_sizes":[],"default_left":[0,0,0,0,0,0,0,0,0,0,0,0,0,0,0,0,0,0,0,0,0,0,0,0,0],"id":16,"left_children":[1,3,5,7,9,11,13,15,17,-1,19,-1,-1,21,23,-1,-1,-1,-1,-1,-1,-1,-1,-1,-1],"loss_changes":[4.6275115E0,4.5996666E0,3.6950917E0,3.5189743E0,4.553813E0,2.962851E0,4.432554E0,3.8679118E0,3.120389E0,0E0,4.0257444E0,0E0,0E0,1.0431013E0,5.252931E0,0E0,0E0,0E0,0E0,0E0,0E0,0E0,0E0,0E0,0E0],"parents":[2147483647,0,0,1,1,2,2,3,3,4,4,5,5,6,6,7,7,8,8,10,10,13,13,14,14],"right_children":[2,4,6,8,10,12,14,16,18,-1,20,-1,-1,22,24,-1,-1,-1,-1,-1,-1,-1,-1,-1,-1],"split_conditions":[1.3760416E1,7.0901726E1,-2.3987066E-2,1.0333142E0,1.0105944E0,2.5014507E1,3.6691457E-3,6.793362E1,1.0360308E0,3.3221047E-2,1.8725054E1,2.3885187E-2,-6.0197223E-2,5.8047523E1,1.2072001E1,-8.219848E-3,3.4119353E-2,6.403008E-2,9.061056E-3,-6.275759E-2,7.597107E-3,2.0743202E-2,7.254009E-2,4.6218645E-2,-3.8283627E-2],"split_indices":[13,11,20,23,23,13,20,11,23,0,16,0,0,11,12,0,0,0,0,0,0,0,0,0,0],"split_type":[0,0,0,0,0,0,0,0,0,0,0,0,0,0,0,0,0,0,0,0,0,0,0,0,0],"sum_hessian":[1.0562958E2,9.068886E1,1.4940719E1,7.978428E1,1.0904576E1,2.4416466E0,1.2499072E1,6.530508E1,1.4479206E1,1.4783701E0,9.426207E0,1.2015136E0,1.2401329E0,7.0973496E0,5.4017224E0,6.0377327E1,4.927746E0,2.455786E0,1.202342E1,6.9632797E0,2.4629264E0,2.4541855E0,4.643164E0,2.412183E0,2.9895391E0],"tree_param":{"num_deleted":"0","num_feature":"24","num_nodes":"25","size_leaf_vector":"1"}},{"base_weights":[-3.9005432E-2,4.181371E-1,-1.394454E-1,4.2629834E-2,7.408976E-1,1.078987E-3,-4.618371E-1,2.9083234E-1,-4.3073002E-2,2.9637009E-2,1.003644E0,-1.640694E-1,4.579494E-1,3.7597457E-1,-8.854575E-1,2.9310217E-2,-2.9082192E-2,4.465612E-2,-3.370525E-2,5.683115E-2,8.032757E-3,2.480614E-5,-5.4519035E-2,-2.9811738E-2,3.5941023E-2,-1.2858775E-2,5.2996058E-2,1.3276825E-2,-5.495691E-2],"categories":[],"categories_nodes":[],"categories_segments":[],"categories_sizes":[],"default_left":[0,0,0,0,0,0,0,0,0,0,0,0,0,0,0,0,0,0,0,0,0,0,0,0,0,0,0,0,0],"id":17,"left_children":[1,3,5,7,9,11,13,15,-1,17,19,21,23,25,27,-1,-1,-1,-1,-1,-1,-1,-1,-1,-1,-1,-1,-1,-1],"loss_changes":[5.0717425E0,2.3825452E0,4.090073E0,2.5546741E0,1.9606595E0,4.8938313E0,1.0059313E1,2.6097884E0,0E0,2.974118E0,6.858468E-1,7.2634535E0,5.16423E0,4.561947E0,4.841778E0,0E0,0E0,0E0,0E0,0E0,0E0,0E0,0E0,0E0,0E0,0E0,0E0,0E0,0E0],"parents":[2147483647,0,0,1,1,2,2,3,3,4,4,5,5,6,6,7,7,9,9,10,10,11,11,12,12,13,13,14,14],"right_children":[2,4,6,8,10,12,14,16,-1,18,20,22,24,26,28,-1,-1,-1,-1,-1,-1,-1,-1,-1,-1,-1,-1,-1,-1],"split_conditions":[4.418738E1,4.03251E1,4.7774216E2,-1.6925149E-2,-5.2065343E-2,3.3672116E2,7.6663704E0,4.715004E2,-4.3073002E-2,4.1463924E1,-1.0929826E0,3.233115E2,7.5264406E-1,4.8491928E2,-3.6703758E0,2.9310217E-2,-2.9082192E-2,4.465612E-2,-3.370525E-2,5.683115E-2,8.032757E-3,2.480614E-5,-5.4519035E-2,-2.9811738E-2,3.5941023E-2,-1.2858775E-2,5.2996058E-2,1.3276825E-2,-5.495691E-2],"split_indices":[11,11,14,22,22,17,18,15,0,11,12,17,19,15,12,0,0,0,0,0,0,0,0,0,0,0,0,0,0],"split_type":[0,0,0,0,0,0,0,0,0,0,0,0,0,0,0,0,0,0,0,0,0,0,0,0,0,0,0,0,0],"sum_hessian":[1.0818857E2,1.8918741E1,8.926983E1,9.268097E0,9.650645E0,6.286488E1,2.6404947E1,7.803965E0,1.4641312E0,2.9035268E0,6.7471185E0,4.664474E1,1.622014E1,8.905211E0,1.7499735E1,6.075315E0,1.7286501E0,1.1829511E0,1.7205758E0,5.5269356E0,1.2201833E0,4.045678E1,6.187959E0,2.9626143E0,1.3257527E1,4.948354E0,3.9568582E0,2.7021084E0,1.4797627E1],"tree_param":{"num_deleted":"0","num_feature":"24","num_nodes":"29","size_leaf_vector":"1"}},{"base_weights":[1.7042292E-2,-7.2052546E-2,5.421156E-1,-3.212197E-2,-5.8762826E-2,5.3393096E-2,2.3811507E-1,-6.479029E-1,4.4772122E-2,8.0800277E-1,-1.2169114E-1,-2.2780166E-3,-4.996592E-2,2.40598E-2,-4.1343793E-3,8.7601375E-3,5.983178E-2,-4.7382724E-2,1.7223937E-2],"categories":[],"categories_nodes":[],"categories_segments":[],"categories_sizes":[],"default_left":[0,0,0,0,0,0,0,0,0,0,0,0,0,0,0,0,0,0,0],"id":18,"left_children":[1,3,5,7,-1,-1,9,11,13,15,17,-1,-1,-1,-1,-1,-1,-1,-1],"loss_changes":[5.3486505E0,4.2756042E0,2.3959818E0,4.5520544E0,0E0,0E0,2.5166168E0,2.2127576E0,4.815604E0,9.450333E-1,3.4446735E0,0E0,0E0,0E0,0E0,0E0,0E0,0E0,0E0],"parents":[2147483647,0,0,1,1,2,2,3,3,6,6,7,7,8,8,9,9,10,10],"right_children":[2,4,6,8,-1,-1,10,12,14,16,18,-1,-1,-1,-1,-1,-1,-1,-1],"split_conditions":[1.0390583E0,5.151571E2,4.895503E1,4.46522E0,-5.8762826E-2,5.3393096E-2,1.0461974E0,2.098707E2,-6.8400707E-3,1.0421624E0,2.9204962E2,-2.2780166E-3,-4.996592E-2,2.40598E-2,-4.1343793E-3,8.7601375E-3,5.983178E-2,-4.7382724E-2,1.7223937E-2],"split_indices":[23,17,11,18,0,0,23,17,20,23,15,0,0,0,0,0,0,0,0],"split_type":[0,0,0,0,0,0,0,0,0,0,0,0,0,0,0,0,0,0,0],"sum_hessian":[1.1249806E2,9.6916046E1,1.5582012E1,9.4523865E1,2.3921838E0,4.788302E0,1.0793711E1,9.668774E0,8.4855095E1,3.6952457E0,7.098465E0,3.9787166E0,5.6900573E0,1.8553242E1,6.630185E1,1.9579645E0,1.7372813E0,2.1883237E0,4.910141E0],"tree_param":{"num_deleted":"0","num_feature":"24","num_nodes":"19","size_leaf_vector":"1"}},{"base_weights":[5.5381814E-3,5.496468E-1,-6.6968456E-2,7.2509986E-1,-2.4825277E-2,-7.416579E-1,-1.3469493E-2,1.313925E-1,5.673328E-2,-1.3236801E-1,-6.341013E-2,6.034065E-1,-9.8468885E-2,-2.3867799E-2,2.7925214E-2,-3.685805E-2,1.6507804E-2,1.4608037E-3,4.6634488E-2,-1.180447E-2,1.1748094E-2],"categories":[],"categories_nodes":[],"categories_segments":[],"categories_sizes":[],"default_left":[1,0,0,0,0,0,0,1,0,0,0,0,0,0,0,0,0,0,0,0,0],"id":19,"left_children":[1,3,5,7,-1,9,11,13,-1,15,-1,17,19,-1,-1,-1,-1,-1,-1,-1,-1],"loss_changes":[4.3830447E0,2.7577176E0,3.5310814E0,2.6699338E0,0E0,2.138507E0,4.8788776E0,1.7911726E0,0E0,1.4879587E0,0E0,2.10386E0,3.8018262E0,0E0,0E0,0E0,0E0,0E0,0E0,0E0,0E0],"parents":[2147483647,0,0,1,1,2,2,3,3,5,5,6,6,7,7,9,9,11,11,12,12],"right_children":[2,4,6,8,-1,10,12,14,-1,16,-1,18,20,-1,-1,-1,-1,-1,-1,-1,-1],"split_conditions":[-4.4079432E0,1.8890932E1,-2.798882E0,9.5085E0,-2.4825277E-2,-3.0837967E0,-1.3805193E0,-6.4705667E0,5.673328E-2,1.0147755E0,-6.341013E-2,-3.0353308E0,1.0919702E0,-2.3867799E-2,2.7925214E-2,-3.685805E-2,1.6507804E-2,1.4608037E-3,4.6634488E-2,-1.180447E-2,1.1748094E-2],"split_indices":[13,18,13,18,0,13,12,13,0,23,0,12,19,0,0,0,0,0,0,0,0],"split_type":[0,0,0,0,0,0,0,0,0,0,0,0,0,0,0,0,0,0,0,0,0],"sum_hessian":[1.0916659E2,1.206289E1,9.71037E1,1.0593169E1,1.4697204E0,6.189041E0,9.091466E1,4.8636384E0,5.729531E0,3.4491994E0,2.739842E0,1.0271459E1,8.0643196E1,1.9568983E0,2.9067402E0,1.2374026E0,2.2117968E0,4.1403737E0,6.131085E0,5.7289444E1,2.3353756E1],"tree_param":{"num_deleted":"0","num_feature":"24","num_nodes":"21","size_leaf_vector":"1"}},{"base_weights":[-1.5342499E-2,5.4809684E-1,-1.2514725E-1,-3.4239464E-2,6.7639375E-1,-7.631448E-2,-5.5779576E-2,2.9849902E-1,9.561499E-1,-6.4099115E-1,2.2643463E-4,-3.1847067E-2,3.793119E-2,6.7317255E-2,9.361423E-3,-5.8629274E-2,1.1896117E-2,-1.6943709E-3,5.48936E-2],"categories":[],"categories_nodes":[],"categories_segments":[],"categories_sizes":[],"default_left":[0,0,0,0,0,0,0,0,0,0,0,0,0,0,0,0,0,0,0],"id":20,"left_children":[1,3,5,-1,7,9,-1,11,13,15,17,-1,-1,-1,-1,-1,-1,-1,-1],"loss_changes":[7.014978E0,3.389122E0,4.4989543E0,0E0,1.5390348E0,3.9504867E0,0E0,4.268756E0,2.5869713E0,5.3766327E0,3.088533E0,0E0,0E0,0E0,0E0,0E0,0E0,0E0,0E0],"parents":[2147483647,0,0,1,1,2,2,4,4,5,5,7,7,8,8,9,9,10,10],"right_children":[2,4,6,-1,8,10,-1,12,14,16,18,-1,-1,-1,-1,-1,-1,-1,-1],"split_conditions":[4.418738E1,4.760787E0,5.3246643E2,-3.4239464E-2,9.81751E0,1.9734605E2,-5.5779576E-2,-3.6862369E0,4.16747E1,9.520919E-1,5.0270987E2,-3.1847067E-2,3.793119E-2,6.7317255E-2,9.361423E-3,-5.8629274E-2,1.1896117E-2,-1.6943709E-3,5.48936E-2],"split_indices":[11,16,14,0,16,15,0,12,11,19,15,0,0,0,0,0,0,0,0],"split_type":[0,0,0,0,0,0,0,0,0,0,0,0,0,0,0,0,0,0,0],"sum_hessian":[1.1127693E2,1.749803E1,9.37789E1,1.240429E0,1.6257599E1,9.039893E1,3.3799703E0,7.795045E0,8.462555E0,9.910469E0,8.0488464E1,2.443366E0,5.351679E0,5.1156335E0,3.3469212E0,5.967193E0,3.9432755E0,7.900227E1,1.4861932E0],"tree_param":{"num_deleted":"0","num_feature":"24","num_nodes":"19","size_leaf_vector":"1"}},{"base_weights":[1.9410739E-2,4.2463338E-1,-6.184948E-2,-5.2313633E-2,5.8403486E-1,2.9457328E-1,-1.6663553E-1,-1.0532835E-2,8.349421E-1,-5.1275153E-2,4.2150122E-1,-1.0644791E0,-7.6995544E-2,-3.638811E-2,3.566704E-2,5.2882563E-2,-1.42006995E-2,-1.4957982E-2,2.9118141E-2,1.1340062E-2,-7.007169E-2,-1.9526525E-4,-5.6123912E-2],"categories":[],"categories_nodes":[],"categories_segments":[],"categories_sizes":[],"default_left":[0,0,0,0,0,0,0,0,0,0,0,0,0,0,0,0,0,0,0,0,0,0,0],"id":21,"left_children":[1,3,5,-1,7,9,11,13,15,-1,17,19,21,-1,-1,-1,-1,-1,-1,-1,-1,-1,-1],"loss_changes":[3.7662208E0,5.0890512E0,3.6150632E0,0E0,2.6751418E0,4.1275153E0,5.9079876E0,3.7856777E0,3.4357252E0,0E0,2.5887716E0,3.2234974E0,5.248907E0,0E0,0E0,0E0,0E0,0E0,0E0,0E0,0E0,0E0,0E0],"parents":[2147483647,0,0,1,1,2,2,4,4,5,5,6,6,7,7,8,8,10,10,11,11,12,12],"right_children":[2,4,6,-1,8,10,12,14,16,-1,18,20,22,-1,-1,-1,-1,-1,-1,-1,-1,-1,-1],"split_conditions":[4.4262108E1,4.661242E0,-7.551389E-3,-5.2313633E-2,3.4153297E1,-6.617514E-2,-4.9113166E-3,-6.724793E-3,1.7770958E1,-5.1275153E-2,1.0728686E0,8.6404496E-1,1.8580084E1,-3.638811E-2,3.566704E-2,5.2882563E-2,-1.42006995E-2,-1.4957982E-2,2.9118141E-2,1.1340062E-2,-7.007169E-2,-1.9526525E-4,-5.6123912E-2],"split_indices":[11,16,20,0,11,22,20,20,16,0,12,12,12,0,0,0,0,0,0,0,0,0,0],"split_type":[0,0,0,0,0,0,0,0,0,0,0,0,0,0,0,0,0,0,0,0,0,0,0],"sum_hessian":[1.1257819E2,1.8098799E1,9.447939E1,1.2255995E0,1.68732E1,2.1054096E1,7.34253E1,5.2916794E0,1.158152E1,1.2258279E0,1.982827E1,5.678072E0,6.774722E1,2.65534E0,2.6363394E0,9.704743E0,1.876776E0,3.4614081E0,1.6366861E1,1.2426994E0,4.4353724E0,6.4258606E1,3.4886174E0],"tree_param":{"num_deleted":"0","num_feature":"24","num_nodes":"23","size_leaf_vector":"1"}},{"base_weights":[1.1322587E-1,1.6274594E-1,-6.08344E-1,1.2614985E-1,6.2943876E-2,-9.633259E-1,1.2245159E-2,5.367765E-1,5.4561038E-2,-5.7363153E-2,-9.249768E-3,-2.0191986E-2,3.663714E-2,-2.5647193E-2,5.306702E-3],"categories":[],"categories_nodes":[],"categories_segments":[],"categories_sizes":[],"default_left":[0,0,0,0,0,0,0,0,0,0,0,0,0,0,0],"id":22,"left_children":[1,3,5,7,-1,9,-1,11,13,-1,-1,-1,-1,-1,-1],"loss_changes":[4.010462E0,3.9819677E0,2.4291449E0,2.9397724E0,0E0,5.4886436E-1,0E0,3.0389671E0,2.6042604E0,0E0,0E0,0E0,0E0,0E0,0E0],"parents":[2147483647,0,0,1,1,2,2,3,3,5,5,7,7,8,8],"right_children":[2,4,6,8,-1,10,-1,12,14,-1,-1,-1,-1,-1,-1],"split_conditions":[5.3246643E2,5.0136334E2,3.6691457E-3,4.418738E1,6.2943876E-2,-7.004405E-3,1.2245159E-2,4.433443E0,-2.798882E0,-5.7363153E-2,-9.249768E-3,-2.0191986E-2,3.663714E-2,-2.5647193E-2,5.306702E-3],"split_indices":[14,15,20,11,0,21,0,18,13,0,0,0,0,0,0],"split_type":[0,0,0,0,0,0,0,0,0,0,0,0,0,0,0],"sum_hessian":[1.0846588E2,1.0222483E2,6.241055E0,1.0000121E2,2.2236133E0,4.3163037E0,1.9247513E0,1.3881305E1,8.611991E1,3.1078448E0,1.2084588E0,2.2104814E0,1.1670824E1,6.4290648E0,7.969085E1],"tree_param":{"num_deleted":"0","num_feature":"24","num_nodes":"15","size_leaf_vector":"1"}},{"base_weights":[-1.6923554E-2,-6.8714136E-1,4.466295E-2,2.2089688E-1,-1.0343444E0,2.4475446E-1,-2.002127E-1,3.0503273E-2,-1.3371246E-2,-7.1117006E-2,-2.9052952E-1,6.6310816E-2,8.357932E-1,1.2742199E-1,-5.6790495E-1,-3.2378834E-2,1.1513553E-2,1.2883762E-2,-3.9162666E-2,5.306573E-2,-2.4859596E-3,1.3694042E-2,-3.818437E-2,1.6084772E-2,-4.3163534E-2],"categories":[],"categories_nodes":[],"categories_segments":[],"categories_sizes":[],"default_left":[0,0,0,0,0,0,0,0,0,0,0,0,0,0,0,0,0,0,0,0,0,0,0,0,0],"id":23,"left_children":[1,3,5,7,9,11,13,-1,-1,-1,15,17,19,21,23,-1,-1,-1,-1,-1,-1,-1,-1,-1,-1],"loss_changes":[4.722918E0,3.263896E0,5.196217E0,8.2583594E-1,1.6475673E0,6.089262E0,5.829423E0,0E0,0E0,0E0,8.379924E-1,7.653817E0,2.733717E0,3.613889E0,6.242599E0,0E0,0E0,0E0,0E0,0E0,0E0,0E0,0E0,0E0,0E0],"parents":[2147483647,0,0,1,1,2,2,3,3,4,4,5,5,6,6,10,10,11,11,12,12,13,13,14,14],"right_children":[2,4,6,8,10,12,14,-1,-1,-1,16,18,20,22,24,-1,-1,-1,-1,-1,-1,-1,-1,-1,-1],"split_conditions":[4.46522E0,2.082641E2,3.8603345E2,5.6076195E1,8.360346E0,3.008776E2,8.961149E0,3.0503273E-2,-1.3371246E-2,-7.1117006E-2,4.3913064E0,6.906716E1,7.375468E1,2.3290351E-2,-5.080971E0,-3.2378834E-2,1.1513553E-2,1.2883762E-2,-3.9162666E-2,5.306573E-2,-2.4859596E-3,1.3694042E-2,-3.818437E-2,1.6084772E-2,-4.3163534E-2],"split_indices":[18,17,15,11,16,15,18,0,0,0,18,11,11,22,12,0,0,0,0,0,0,0,0,0,0],"split_type":[0,0,0,0,0,0,0,0,0,0,0,0,0,0,0,0,0,0,0,0,0,0,0,0,0],"sum_hessian":[1.1267832E2,8.627866E0,1.0405046E2,2.4871135E0,6.140752E0,5.7261627E1,4.678883E1,1.2453334E0,1.24178E0,3.436138E0,2.704614E0,4.483688E1,1.2424747E1,2.508771E1,2.170112E1,1.4601487E0,1.2444651E0,3.716268E1,7.6742005E0,9.744497E0,2.6802504E0,2.2141312E1,2.946398E0,5.3870206E0,1.6314098E1],"tree_param":{"num_deleted":"0","num_feature":"24","num_nodes":"25","size_leaf_vector":"1"}},{"base_weights":[-3.8831133E-2,1.081317E-1,-2.6676553E-1,-2.6475176E-2,6.037335E-1,6.732694E-1,-3.7847614E-1,-1.0931499E-1,7.380762E-1,-2.3429347E-2,8.042551E-1,5.4036297E-2,-1.8986233E-3,5.3999317E-1,-4.785846E-1,2.7782504E-2,-1.15274405E-2,5.2754533E-2,-1.0819192E-2,5.2967113E-2,-1.53737385E-2,-2.0015618E-2,5.7584386E-2,-2.9790426E-2,1.6132653E-2],"categories":[],"categories_nodes":[],"categories_segments":[],"categories_sizes":[],"default_left":[0,0,0,0,0,0,0,0,0,0,0,0,0,0,0,0,0,0,0,0,0,0,0,0,0],"id":24,"left_children":[1,3,5,7,9,11,13,15,17,-1,19,-1,-1,21,23,-1,-1,-1,-1,-1,-1,-1,-1,-1,-1],"loss_changes":[3.7968729E0,4.6258645E0,4.9156303E0,3.5831432E0,3.5595417E0,1.5114963E0,3.964764E0,4.220605E0,1.9030972E0,0E0,3.966385E0,0E0,0E0,3.009997E0,3.655982E0,0E0,0E0,0E0,0E0,0E0,0E0,0E0,0E0,0E0,0E0],"parents":[2147483647,0,0,1,1,2,2,3,3,4,4,5,5,6,6,7,7,8,8,10,10,13,13,14,14],"right_children":[2,4,6,8,10,12,14,16,18,-1,20,-1,-1,22,24,-1,-1,-1,-1,-1,-1,-1,-1,-1,-1],"split_conditions":[1.2585526E1,1.0255991E0,4.16747E1,1.582945E-2,8.6595285E-1,-5.0155062E-2,1.0128995E0,7.22332E-1,4.410631E0,-2.3429347E-2,1.4357117E0,5.4036297E-2,-1.8986233E-3,1.0105944E0,3.504091E-2,2.7782504E-2,-1.15274405E-2,5.2754533E-2,-1.0819192E-2,5.2967113E-2,-1.53737385E-2,-2.0015618E-2,5.7584386E-2,-2.9790426E-2,1.6132653E-2],"split_indices":[16,23,11,20,19,22,23,19,12,0,19,0,0,23,20,0,0,0,0,0,0,0,0,0,0],"split_type":[0,0,0,0,0,0,0,0,0,0,0,0,0,0,0,0,0,0,0,0,0,0,0,0,0],"sum_hessian":[1.1148551E2,6.810182E1,4.3383682E1,5.430029E1,1.3801536E1,4.074044E0,3.930964E1,4.9765205E1,4.535083E0,1.96367E0,1.1837866E1,2.2599006E0,1.8141438E0,3.4315913E0,3.5878048E1,7.1213655E0,4.264384E1,3.325214E0,1.209869E0,9.66691E0,2.170956E0,1.4887035E0,1.9428879E0,3.1522573E1,4.3554754E0],"tree_param":{"num_deleted":"0","num_feature":"24","num_nodes":"25","size_leaf_vector":"1"}},{"base_weights":[6.6493293E-3,5.7013374E-2,-5.9510744E-1,8.287905E-2,-4.4175547E-2,-9.2941046E-1,-8.3025716E-2,2.5981503E-2,5.4963493E-1,-5.5269893E-2,-9.367003E-3,3.3589292E-2,-5.105106E-2,-3.9316926E-2,3.7054282E-3,-2.5402501E-2,3.6331497E-2],"categories":[],"categories_nodes":[],"categories_segments":[],"categories_sizes":[],"default_left":[0,0,0,0,0,0,0,0,0,0,0,0,0,0,0,0,0],"id":25,"left_children":[1,3,5,7,-1,9,11,13,15,-1,-1,-1,-1,-1,-1,-1,-1],"loss_changes":[3.4822211E0,2.6495924E0,1.4421022E0,2.7472515E0,0E0,4.813218E-1,3.9451675E0,3.7228162E0,2.4749904E0,0E0,0E0,0E0,0E0,0E0,0E0,0E0,0E0],"parents":[2147483647,0,0,1,1,2,2,3,3,5,5,6,6,7,7,8,8],"right_children":[2,4,6,8,-1,10,12,14,16,-1,-1,-1,-1,-1,-1,-1,-1],"split_conditions":[5.312364E2,1.8764645E0,-4.402508E-3,1.3045838E0,-4.4175547E-2,-7.004405E-3,-1.0444367E-2,-4.5256197E-2,4.433443E0,-5.5269893E-2,-9.367003E-3,3.3589292E-2,-5.105106E-2,-3.9316926E-2,3.7054282E-3,-2.5402501E-2,3.6331497E-2],"split_indices":[14,19,20,19,0,21,22,21,18,0,0,0,0,0,0,0,0],"split_type":[0,0,0,0,0,0,0,0,0,0,0,0,0,0,0,0,0],"sum_hessian":[1.12779106E2,1.0490438E2,7.8747196E0,1.0298406E2,1.9203198E0,4.2713094E0,3.6034102E0,9.273529E1,1.0248771E1,3.0567627E0,1.2145467E0,2.1539326E0,1.4494776E0,4.328989E0,8.84063E1,1.2010614E0,9.047709E0],"tree_param":{"num_deleted":"0","num_feature":"24","num_nodes":"17","size_leaf_vector":"1"}},{"base_weights":[1.8803267E-2,1.8807481E-1,-3.1081742E-1,2.7675055E-2,6.0434705E-1,1.374847E-2,-6.9608986E-1,1.3829535E-1,-8.430947E-1,5.2034795E-2,9.9052197E-1,-1.8329425E-1,5.9417147E-2,1.2753806E-1,-8.769963E-1,-3.7698713E-3,2.339015E-2,-5.7881393E-2,1.12849055E-2,3.7676163E-2,-3.9834157E-2,5.775242E-2,-4.779057E-3,1.7028E-2,-2.0809976E-2,3.2940622E-2,-2.2737142E-2,6.4756363E-3,-5.1248174E-2],"categories":[],"categories_nodes":[],"categories_segments":[],"categories_sizes":[],"default_left":[0,0,0,0,0,0,0,0,0,0,0,0,0,0,0,0,0,0,0,0,0,0,0,0,0,0,0,0,0],"id":26,"left_children":[1,3,5,7,9,11,13,15,17,19,21,23,-1,25,27,-1,-1,-1,-1,-1,-1,-1,-1,-1,-1,-1,-1,-1,-1],"loss_changes":[6.1370664E0,4.8309946E0,4.6789656E0,5.26582E0,4.245471E0,5.1355767E0,2.658743E0,3.4355633E0,2.3342605E0,6.164268E0,2.2191505E0,2.4674678E0,0E0,1.5219488E0,2.2389088E0,0E0,0E0,0E0,0E0,0E0,0E0,0E0,0E0,0E0,0E0,0E0,0E0,0E0,0E0],"parents":[2147483647,0,0,1,1,2,2,3,3,4,4,5,5,6,6,7,7,8,8,9,9,10,10,11,11,13,13,14,14],"right_children":[2,4,6,8,10,12,14,16,18,20,22,24,-1,26,28,-1,-1,-1,-1,-1,-1,-1,-1,-1,-1,-1,-1,-1,-1],"split_conditions":[4.7691815E2,3.0113147E2,2.2762034E0,3.233115E2,9.116709E-1,5.1189355E2,6.724127E0,1.0229609E0,3.853994E2,1.6744192E1,4.4411084E2,-5.1084094E0,5.9417147E-2,-5.668131E-4,-1.6001286E-2,-3.7698713E-3,2.339015E-2,-5.7881393E-2,1.12849055E-2,3.7676163E-2,-3.9834157E-2,5.775242E-2,-4.779057E-3,1.7028E-2,-2.0809976E-2,3.2940622E-2,-2.2737142E-2,6.4756363E-3,-5.1248174E-2],"split_indices":[14,15,13,17,19,17,18,23,14,18,17,13,0,20,20,0,0,0,0,0,0,0,0,0,0,0,0,0,0],"split_type":[0,0,0,0,0,0,0,0,0,0,0,0,0,0,0,0,0,0,0,0,0,0,0,0,0,0,0,0,0],"sum_hessian":[1.0794463E2,7.16033E1,3.6341335E1,5.245688E1,1.9146421E1,2.0248047E1,1.6093288E1,4.729041E1,5.1664686E0,8.345428E0,1.0800993E1,1.8062023E1,2.1860228E0,2.9513657E0,1.3141924E1,2.9154362E1,1.8136047E1,3.9275267E0,1.2389419E0,4.6304216E0,3.7150068E0,9.324942E0,1.4760513E0,5.416629E0,1.2645394E1,1.4745494E0,1.4768163E0,1.700363E0,1.1441561E1],"tree_param":{"num_deleted":"0","num_feature":"24","num_nodes":"29","size_leaf_vector":"1"}},{"base_weights":[-1.0824827E-2,4.8539124E-2,-7.4955654E-1,2.556036E-1,-1.4026433E-1,-5.698919E-2,-1.1302643E-1,1.2398121E-1,1.0245351E0,-4.8139215E-1,7.4110135E-2,2.6656479E-2,-4.1424967E-2,-2.319571E-3,2.4378998E-2,6.2450744E-2,1.3569291E-2,-8.0601005E-3,-4.466636E-2,1.6917745E-2,-3.4794834E-2],"categories":[],"categories_nodes":[],"categories_segments":[],"categories_sizes":[],"default_left":[0,0,0,0,0,0,0,0,0,0,0,0,0,0,0,0,0,0,0,0,0],"id":27,"left_children":[1,3,5,7,9,-1,11,13,15,17,19,-1,-1,-1,-1,-1,-1,-1,-1,-1,-1],"loss_changes":[5.0324435E0,4.195115E0,1.9911375E0,5.04428E0,4.1524434E0,0E0,2.4544852E0,2.7957006E0,9.003453E-1,2.7390213E0,7.445719E0,0E0,0E0,0E0,0E0,0E0,0E0,0E0,0E0,0E0,0E0],"parents":[2147483647,0,0,1,1,2,2,3,3,4,4,6,6,7,7,8,8,9,9,10,10],"right_children":[2,4,6,8,10,-1,12,14,16,18,20,-1,-1,-1,-1,-1,-1,-1,-1,-1,-1],"split_conditions":[5.303584E2,7.8015967E-4,7.366395E0,5.0522473E2,9.0639174E-1,-5.698919E-2,1.0245035E0,1.0319368E0,5.248192E2,8.2443726E-1,7.0901726E1,2.6656479E-2,-4.1424967E-2,-2.319571E-3,2.4378998E-2,6.2450744E-2,1.3569291E-2,-8.0601005E-3,-4.466636E-2,1.6917745E-2,-3.4794834E-2],"split_indices":[14,20,16,14,19,0,23,23,14,19,11,0,0,0,0,0,0,0,0,0,0],"split_type":[0,0,0,0,0,0,0,0,0,0,0,0,0,0,0,0,0,0,0,0,0],"sum_hessian":[1.12924774E2,1.0539E2,7.534771E0,5.009548E1,5.5294518E1,4.180983E0,3.3537881E0,4.3765182E1,6.3303E0,2.0858088E1,3.443643E1,1.8961759E0,1.4576124E0,3.0395212E1,1.3369971E1,4.369546E0,1.9607542E0,1.251878E1,8.339308E0,2.6055498E1,8.380934E0],"tree_param":{"num_deleted":"0","num_feature":"24","num_nodes":"21","size_leaf_vector":"1"}},{"base_weights":[1.7255912E-2,-4.4931576E-2,5.4732615E-1,7.3207565E-2,-3.3216876E-1,8.1318027E-1,-2.9875258E-1,3.1124532E-1,-1.168675E-1,-9.2239445E-1,-1.3110744E-2,-1.6082373E-2,1.1822859E0,-3.2279577E-2,9.140147E-3,-1.1580392E-2,2.5103563E-2,3.2525755E-2,-9.794564E-3,-5.8737122E-3,-6.421783E-2,3.4842677E-2,-1.567248E-2,6.922734E-2,6.018175E-3],"categories":[],"categories_nodes":[],"categories_segments":[],"categories_sizes":[],"default_left":[1,0,0,0,0,0,0,0,0,0,0,0,0,0,0,0,0,0,0,0,0,0,0,0,0],"id":28,"left_children":[1,3,5,7,9,11,13,15,17,19,21,-1,23,-1,-1,-1,-1,-1,-1,-1,-1,-1,-1,-1,-1],"loss_changes":[3.5804906E0,3.3318744E0,2.8077695E0,3.1982768E0,5.3712044E0,4.12709E0,6.95511E-1,3.358697E0,2.527841E0,2.7673664E0,4.3913803E0,0E0,1.3290186E0,0E0,0E0,0E0,0E0,0E0,0E0,0E0,0E0,0E0,0E0,0E0,0E0],"parents":[2147483647,0,0,1,1,2,2,3,3,4,4,5,5,6,6,7,7,8,8,9,9,10,10,12,12],"right_children":[2,4,6,8,10,12,14,16,18,20,22,-1,24,-1,-1,-1,-1,-1,-1,-1,-1,-1,-1,-1,-1],"split_conditions":[1.3760416E1,4.943504E0,1.8923571E-2,7.6663704E0,6.953929E0,2.8997577E2,8.6595285E-1,4.46522E0,-7.6428714E0,8.4838206E-1,1.9571606E-5,-1.6082373E-2,7.6453896E1,-3.2279577E-2,9.140147E-3,-1.1580392E-2,2.5103563E-2,3.2525755E-2,-9.794564E-3,-5.8737122E-3,-6.421783E-2,3.4842677E-2,-1.567248E-2,6.922734E-2,6.018175E-3],"split_indices":[13,12,21,18,12,15,19,18,12,19,21,0,11,0,0,0,0,0,0,0,0,0,0,0,0],"split_type":[0,0,0,0,0,0,0,0,0,0,0,0,0,0,0,0,0,0,0,0,0,0,0,0,0],"sum_hessian":[1.0687305E2,9.647043E1,1.0402613E1,6.888396E1,2.7586477E1,7.945019E0,2.4575937E0,3.030031E1,3.8583645E1,9.016273E0,1.8570204E1,1.9814773E0,5.9635415E0,1.2306114E0,1.2269822E0,7.8253613E0,2.247495E1,2.9271216E0,3.565652E1,3.2076793E0,5.8085933E0,5.128005E0,1.34422E1,4.754211E0,1.2093304E0],"tree_param":{"num_deleted":"0","num_feature":"24","num_nodes":"25","size_leaf_vector":"1"}},{"base_weights":[2.6694823E-2,1.4388238E-1,-2.143179E-1,-1.4200522E-2,5.7087475E-1,-4.9386263E-2,-9.3826735E-1,9.232828E-2,-7.929211E-1,-2.9128852E-1,7.616232E-1,-4.7737297E-1,2.2321226E-1,6.007883E-3,-1.1852043E0,4.3355428E-2,-1.4774589E-3,-5.8724016E-2,1.7951487E-2,1.219372E-2,-4.024371E-2,4.711409E-2,-9.3228224E-4,-4.159894E-2,1.7707054E-2,3.6635205E-2,-6.0498565E-3,-7.0333324E-2,-1.0902348E-2],"categories":[],"categories_nodes":[],"categories_segments":[],"categories_sizes":[],"default_left":[0,0,0,0,0,0,0,0,0,0,0,0,0,0,0,0,0,0,0,0,0,0,0,0,0,0,0,0,0],"id":29,"left_children":[1,3,5,7,9,11,13,15,17,19,21,23,25,-1,27,-1,-1,-1,-1,-1,-1,-1,-1,-1,-1,-1,-1,-1,-1],"loss_changes":[3.1818683E0,5.1154866E0,4.359743E0,4.7350464E0,3.5879927E0,3.736083E0,1.9174514E0,4.7781534E0,3.4399042E0,1.4142793E0,2.4191217E0,3.9578092E0,3.5410774E0,0E0,8.924694E-1,0E0,0E0,0E0,0E0,0E0,0E0,0E0,0E0,0E0,0E0,0E0,0E0,0E0,0E0],"parents":[2147483647,0,0,1,1,2,2,3,3,4,4,5,5,6,6,7,7,8,8,9,9,10,10,11,11,12,12,14,14],"right_children":[2,4,6,8,10,12,14,16,18,20,22,24,26,-1,28,-1,-1,-1,-1,-1,-1,-1,-1,-1,-1,-1,-1,-1,-1],"split_conditions":[4.8013235E2,3.0113147E2,2.324404E-2,3.233115E2,7.894361E-1,-4.1753603E-3,1.0108364E0,7.407978E-1,3.853994E2,2.5147455E-2,4.435583E2,-6.6743204E-3,1.2875132E-3,6.007883E-3,4.7323965E-2,4.3355428E-2,-1.4774589E-3,-5.8724016E-2,1.7951487E-2,1.219372E-2,-4.024371E-2,4.711409E-2,-9.3228224E-4,-4.159894E-2,1.7707054E-2,3.6635205E-2,-6.0498565E-3,-7.0333324E-2,-1.0902348E-2],"split_indices":[14,15,22,17,19,20,23,19,14,21,17,21,20,0,22,0,0,0,0,0,0,0,0,0,0,0,0,0,0],"split_type":[0,0,0,0,0,0,0,0,0,0,0,0,0,0,0,0,0,0,0,0,0,0,0,0,0,0,0,0,0],"sum_hessian":[1.1056586E2,7.466468E1,3.590118E1,5.519639E1,1.9468294E1,3.0109735E1,5.7914433E0,4.932955E1,5.8668356E0,3.4314432E0,1.603685E1,1.1423442E1,1.8686293E1,1.1926963E0,4.5987473E0,5.8739576E0,4.3455593E1,4.3923917E0,1.4744439E0,1.9375964E0,1.4938468E0,1.2853251E1,3.1835997E0,8.007866E0,3.4155765E0,7.079178E0,1.1607116E1,3.3721497E0,1.2265974E0],"tree_param":{"num_deleted":"0","num_feature":"24","num_nodes":"29","size_leaf_vector":"1"}},{"base_weights":[-3.4452632E-2,9.5759414E-2,-3.0804265E-1,-2.342436E-1,2.0702974E-1,2.7451676E-1,-5.452673E-1,1.4947864E-1,-8.625637E-1,-8.245208E-1,3.3353975E-1,-7.210125E-2,8.125716E-1,-1.9754605E-1,-1.1920712E0,-1.4154009E-2,4.240489E-2,-5.675671E-3,-6.255049E-2,-6.332686E-2,-1.327948E-2,4.4663273E-2,8.707739E-3,2.487861E-2,-3.3996504E-2,5.5337008E-2,1.7747785E-4,-6.259445E-2,-5.4596906E-4,-6.658553E-2,-8.443938E-3],"categories":[],"categories_nodes":[],"categories_segments":[],"categories_sizes":[],"default_left":[0,0,0,0,0,0,0,0,0,0,0,0,0,0,0,0,0,0,0,0,0,0,0,0,0,0,0,0,0,0,0],"id":30,"left_children":[1,3,5,7,9,11,13,15,17,19,21,23,25,27,29,-1,-1,-1,-1,-1,-1,-1,-1,-1,-1,-1,-1,-1,-1,-1,-1],"loss_changes":[4.009892E0,2.8562436E0,5.1616325E0,4.89074E0,7.8068223E0,2.1398766E0,5.636127E0,4.203095E0,2.0798512E0,1.2924433E0,4.494287E0,3.006563E0,1.0560575E0,3.5631049E0,1.0508938E0,0E0,0E0,0E0,0E0,0E0,0E0,0E0,0E0,0E0,0E0,0E0,0E0,0E0,0E0,0E0,0E0],"parents":[2147483647,0,0,1,1,2,2,3,3,4,4,5,5,6,6,7,7,8,8,9,9,10,10,11,11,12,12,13,13,14,14],"right_children":[2,4,6,8,10,12,14,16,18,20,22,24,26,28,30,-1,-1,-1,-1,-1,-1,-1,-1,-1,-1,-1,-1,-1,-1,-1,-1],"split_conditions":[4.8013235E2,2.2188748E2,4.428783E1,1.2857889E1,4.630206E0,1.0301191E1,9.548607E0,1.0189736E0,8.073914E-1,7.276192E0,5.2013593E0,1.0142959E0,1.0322274E0,6.928741E-1,1.8289843E1,-1.4154009E-2,4.240489E-2,-5.675671E-3,-6.255049E-2,-6.332686E-2,-1.327948E-2,4.4663273E-2,8.707739E-3,2.487861E-2,-3.3996504E-2,5.5337008E-2,1.7747785E-4,-6.259445E-2,-5.4596906E-4,-6.658553E-2,-8.443938E-3],"split_indices":[14,15,11,16,18,16,18,23,19,16,18,23,23,19,18,0,0,0,0,0,0,0,0,0,0,0,0,0,0,0,0],"split_type":[0,0,0,0,0,0,0,0,0,0,0,0,0,0,0,0,0,0,0,0,0,0,0,0,0,0,0,0,0,0,0],"sum_hessian":[1.10731255E2,7.546469E1,3.5266567E1,1.87503E1,5.671439E1,1.0159757E1,2.510681E1,1.2114149E1,6.636151E0,5.5929084E0,5.112148E1,6.7058234E0,3.4539335E0,1.7177578E1,7.9292326E0,7.849088E0,4.265061E0,2.7074778E0,3.9286728E0,2.4161558E0,3.1767526E0,1.0310116E1,4.0811363E1,3.5551941E0,3.150629E0,2.2630634E0,1.19087E0,1.7248865E0,1.5452691E1,6.7117286E0,1.2175038E0],"tree_param":{"num_deleted":"0","num_feature":"24","num_nodes":"31","size_leaf_vector":"1"}},{"base_weights":[4.1239645E-2,7.044465E-2,-4.9542308E-2,-5.191967E-1,1.243877E-1,1.892117E-1,-8.809899E-1,1.0590452E0,4.7347054E-2,-3.3410326E-2,4.1038632E-2,-5.883361E-3,-5.19938E-2,6.1787922E-2,3.7914377E-3,-2.648496E-2,6.11004E-3],"categories":[],"categories_nodes":[],"categories_segments":[],"categories_sizes":[],"default_left":[0,0,0,0,0,0,0,0,0,0,0,0,0,0,0,0,0],"id":31,"left_children":[1,3,-1,5,7,9,11,13,15,-1,-1,-1,-1,-1,-1,-1,-1],"loss_changes":[3.419649E0,3.5318894E0,0E0,2.5579932E0,7.1995196E0,2.7022367E0,6.48118E-1,1.2302494E0,4.1275864E0,0E0,0E0,0E0,0E0,0E0,0E0,0E0,0E0],"parents":[2147483647,0,0,1,1,3,3,4,4,5,5,6,6,7,7,8,8],"right_children":[2,4,-1,6,8,10,12,14,16,-1,-1,-1,-1,-1,-1,-1,-1],"split_conditions":[5.151571E2,4.46522E0,-4.9542308E-2,2.082641E2,4.827615E0,8.4838206E-1,-3.0193817E-2,2.4736717E2,2.5657117E2,-3.3410326E-2,4.1038632E-2,-5.883361E-3,-5.19938E-2,6.1787922E-2,3.7914377E-3,-2.648496E-2,6.11004E-3],"split_indices":[17,18,0,17,18,19,21,17,14,0,0,0,0,0,0,0,0],"split_type":[0,0,0,0,0,0,0,0,0,0,0,0,0,0,0,0,0],"sum_hessian":[1.1013532E2,1.0801068E2,2.1246407E0,8.330176E0,9.9680504E1,2.9773667E0,5.3528094E0,6.620003E0,9.30605E1,1.2382598E0,1.7391069E0,1.2221096E0,4.1306996E0,5.393736E0,1.2262672E0,9.987853E0,8.307265E1],"tree_param":{"num_deleted":"0","num_feature":"24","num_nodes":"17","size_leaf_vector":"1"}},{"base_weights":[9.209926E-2,1.3683179E-1,-5.44552E-1,2.2470233E-1,-2.6602638E-1,9.446222E-3,-7.207145E-1,4.917507E-3,4.7225943E-1,-9.54078E-1,1.1226836E-1,-6.941572E-3,-4.7293227E-2,1.256623E-2,-1.6061675E-2,5.159778E-2,1.2401494E-2,6.002889E-3,-6.048919E-2,-3.231381E-2,1.9680528E-2],"categories":[],"categories_nodes":[],"categories_segments":[],"categories_sizes":[],"default_left":[0,0,0,0,0,0,0,0,0,1,0,0,0,0,0,0,0,0,0,0,0],"id":32,"left_children":[1,3,5,7,9,-1,11,13,15,17,19,-1,-1,-1,-1,-1,-1,-1,-1,-1,-1],"loss_changes":[3.2013335E0,3.7195425E0,1.0934498E0,4.645043E0,5.044787E0,0E0,6.7854595E-1,3.7981324E0,4.7840176E0,2.0225916E0,3.0575438E0,0E0,0E0,0E0,0E0,0E0,0E0,0E0,0E0,0E0,0E0],"parents":[2147483647,0,0,1,1,2,2,3,3,4,4,6,6,7,7,8,8,9,9,10,10],"right_children":[2,4,6,8,10,-1,12,14,16,18,20,-1,-1,-1,-1,-1,-1,-1,-1,-1,-1],"split_conditions":[5.303584E2,1.6744192E1,8.571041E0,2.9996704E2,8.587233E-1,9.446222E-3,-2.8886213E0,5.2013593E0,4.73332E2,-5.1084094E0,2.9079224E2,-6.941572E-3,-4.7293227E-2,1.256623E-2,-1.6061675E-2,5.159778E-2,1.2401494E-2,6.002889E-3,-6.048919E-2,-3.231381E-2,1.9680528E-2],"split_indices":[14,18,18,15,19,0,12,18,14,13,15,0,0,0,0,0,0,0,0,0,0],"split_type":[0,0,0,0,0,0,0,0,0,0,0,0,0,0,0,0,0,0,0,0,0],"sum_hessian":[1.08793816E2,1.02385086E2,6.408728E0,8.4414925E1,1.7970165E1,1.227097E0,5.181631E0,4.5255917E1,3.9159004E1,5.8350983E0,1.2135068E1,1.8966082E0,3.285023E0,2.591019E1,1.9345728E1,1.0170453E1,2.898855E1,1.223993E0,4.6111054E0,2.932216E0,9.202851E0],"tree_param":{"num_deleted":"0","num_feature":"24","num_nodes":"21","size_leaf_vector":"1"}},{"base_weights":[8.637727E-4,1.5738301E-1,-1.8090996E-1,2.5156748E-1,-3.6673242E-1,6.735333E-1,-2.6576385E-1,-1.4894055E-1,4.7291932E-1,3.8403302E-1,-7.7800584E-1,5.447292E-2,-1.2046993E-2,-4.9122414E-1,1.6144662E-1,-2.046311E-2,2.4436917E-2,3.6221012E-2,1.6460251E-3,-2.0195773E-2,5.351867E-2,-5.0932594E-2,8.850638E-3,-1.7586997E-2,-5.604307E-2,2.4710028E-2,-1.9541448E-2],"categories":[],"categories_nodes":[],"categories_segments":[],"categories_sizes":[],"default_left":[0,0,0,0,0,0,0,0,0,0,0,0,0,0,1,0,0,0,0,0,0,0,0,0,0,0,0],"id":33,"left_children":[1,3,5,7,9,11,13,15,17,19,21,-1,-1,23,25,-1,-1,-1,-1,-1,-1,-1,-1,-1,-1,-1,-1],"loss_changes":[3.2148848E0,3.0892782E0,3.9696589E0,4.6855497E0,3.2800164E0,2.1665573E0,4.7292833E0,3.402297E0,3.7128587E0,2.6424456E0,1.6898913E0,0E0,0E0,2.4027224E0,3.396202E0,0E0,0E0,0E0,0E0,0E0,0E0,0E0,0E0,0E0,0E0,0E0,0E0],"parents":[2147483647,0,0,1,1,2,2,3,3,4,4,5,5,6,6,7,7,8,8,9,9,10,10,13,13,14,14],"right_children":[2,4,6,8,10,12,14,16,18,20,22,-1,-1,24,26,-1,-1,-1,-1,-1,-1,-1,-1,-1,-1,-1,-1],"split_conditions":[1.1213659E1,5.248192E2,4.16747E1,2.1314403E-1,4.7028996E1,-5.0155062E-2,2.111739E1,1.0249167E-2,1.294547E-2,-5.112223E-3,5.0232434E2,5.447292E-2,-1.2046993E-2,4.1227216E2,1.5285515E1,-2.046311E-2,2.4436917E-2,3.6221012E-2,1.6460251E-3,-2.0195773E-2,5.351867E-2,-5.0932594E-2,8.850638E-3,-1.7586997E-2,-5.604307E-2,2.4710028E-2,-1.9541448E-2],"split_indices":[16,14,11,12,11,22,16,21,21,20,15,0,0,15,13,0,0,0,0,0,0,0,0,0,0,0,0],"split_type":[0,0,0,0,0,0,0,0,0,0,0,0,0,0,0,0,0,0,0,0,0,0,0,0,0,0,0],"sum_hessian":[1.10996155E2,5.9713257E1,5.1282894E1,5.1058052E1,8.655206E0,4.0060525E0,4.7276844E1,1.8290625E1,3.2767426E1,3.086727E0,5.568479E0,2.622104E0,1.3839486E0,3.0847328E1,1.6429514E1,1.3242711E1,5.0479136E0,2.0438486E1,1.2328942E1,1.6285615E0,1.4581653E0,4.394517E0,1.1739622E0,2.6528976E1,4.3183513E0,1.0317955E1,6.11156E0],"tree_param":{"num_deleted":"0","num_feature":"24","num_nodes":"27","size_leaf_vector":"1"}},{"base_weights":[3.0492174E-2,8.778815E-2,-4.3057933E-1,4.476051E-3,6.364718E-1,2.742007E-1,-8.339718E-1,-4.1398946E-2,5.111737E-2,-1.18100084E-1,5.409492E-2,-1.91729E-2,4.0882133E-2,-1.0416719E0,9.577851E-3,1.0971049E-3,-3.9046995E-2,2.0366332E-2,-3.608341E-2,-6.015679E-2,-8.811673E-3],"categories":[],"categories_nodes":[],"categories_segments":[],"categories_sizes":[],"default_left":[0,0,0,0,0,0,0,0,0,0,0,0,0,0,0,0,0,0,0,0,0],"id":34,"left_children":[1,3,5,7,9,11,13,15,-1,17,-1,-1,-1,19,-1,-1,-1,-1,-1,-1,-1],"loss_changes":[2.8402305E0,4.3483567E0,3.6103992E0,3.9481862E0,4.342845E0,2.1299982E0,1.863584E0,3.8114552E0,0E0,2.056132E0,0E0,0E0,0E0,7.174859E-1,0E0,0E0,0E0,0E0,0E0,0E0,0E0],"parents":[2147483647,0,0,1,1,2,2,3,3,4,4,5,5,6,6,7,7,9,9,13,13],"right_children":[2,4,6,8,10,12,14,16,-1,18,-1,-1,-1,20,-1,-1,-1,-1,-1,-1,-1],"split_conditions":[7.3096306E1,1.582945E-2,1.012827E0,7.191138E1,1.7464176E-2,1.0110128E0,1.2981576E0,5.733525E-2,5.111737E-2,5.209501E1,5.409492E-2,-1.91729E-2,4.0882133E-2,2.1086613E1,9.577851E-3,1.0971049E-3,-3.9046995E-2,2.0366332E-2,-3.608341E-2,-6.015679E-2,-8.811673E-3],"split_indices":[11,20,23,11,21,23,19,22,0,11,0,0,0,12,0,0,0,0,0,0,0],"split_type":[0,0,0,0,0,0,0,0,0,0,0,0,0,0,0,0,0,0,0,0,0],"sum_hessian":[1.050822E2,9.4187416E1,1.0894788E1,8.264653E1,1.1540887E1,4.0824575E0,6.8123302E0,8.000028E1,2.6462479E0,4.5566263E0,6.98426E0,1.980319E0,2.1021385E0,5.65191E0,1.1604207E0,7.458267E1,5.417611E0,2.6098223E0,1.9468039E0,4.434387E0,1.2175224E0],"tree_param":{"num_deleted":"0","num_feature":"24","num_nodes":"21","size_leaf_vector":"1"}},{"base_weights":[-6.658626E-2,4.653289E-2,-1.0164988E-1,-1.7218098E-1,4.7282052E-1,-1.1309274E-1,-9.84274E-1,6.358491E-2,-1.6828378E-1,-1.1595704E-2,1.6935706E-2,-6.999315E-2,-1.2778682E-2,-3.0336738E-2,1.8484708E-2],"categories":[],"categories_nodes":[],"categories_segments":[],"categories_sizes":[],"default_left":[0,0,0,0,0,0,0,0,0,0,0,0,0,0,0],"id":35,"left_children":[1,-1,3,5,7,9,11,-1,13,-1,-1,-1,-1,-1,-1],"loss_changes":[4.043232E0,0E0,4.538007E0,4.624629E0,6.5107718E0,5.0782638E0,1.6301594E0,0E0,2.0414739E0,0E0,0E0,0E0,0E0,0E0,0E0],"parents":[2147483647,0,0,2,2,3,3,4,4,5,5,6,6,8,8],"right_children":[2,-1,4,6,8,10,12,-1,14,-1,-1,-1,-1,-1,-1],"split_conditions":[2.1290831E2,4.653289E-2,2.3461699E1,7.1839154E-2,8.9912593E-1,2.1093557E-2,8.9283906E-2,6.358491E-2,2.5298333E-2,-1.1595704E-2,1.6935706E-2,-6.999315E-2,-1.2778682E-2,-3.0336738E-2,1.8484708E-2],"split_indices":[14,0,16,22,19,21,22,0,20,0,0,0,0,0,0],"split_type":[0,0,0,0,0,0,0,0,0,0,0,0,0,0,0],"sum_hessian":[1.1192455E2,2.9340918E0,1.0899046E2,9.769603E1,1.12944355E1,9.2131744E1,5.564284E0,4.5905557E0,6.7038794E0,7.3332596E1,1.8799149E1,2.9568858E0,2.607398E0,3.623185E0,3.0806947E0],"tree_param":{"num_deleted":"0","num_feature":"24","num_nodes":"15","size_leaf_vector":"1"}},{"base_weights":[-6.790214E-2,4.779058E-2,-9.512132E-2,7.400207E-2,-2.731276E-1,1.9197465E-1,-4.5225146E-1,-4.8340693E-2,-7.850605E-1,4.1557713E-3,4.441305E-2,-4.563972E-2,2.8145755E-2,5.136911E-2,-7.1607814E-3,-5.0733656E-2,-9.085567E-3],"categories":[],"categories_nodes":[],"categories_segments":[],"categories_sizes":[],"default_left":[0,0,0,0,0,0,0,0,0,0,0,0,0,0,0,0,0],"id":36,"left_children":[1,-1,3,5,7,9,11,13,15,-1,-1,-1,-1,-1,-1,-1,-1],"loss_changes":[3.1293974E0,0E0,3.245349E0,3.5462534E0,5.9928555E0,3.4295363E0,5.423811E0,3.9725618E0,2.0217905E0,0E0,0E0,0E0,0E0,0E0,0E0,0E0,0E0],"parents":[2147483647,0,0,2,2,3,3,4,4,5,5,6,6,7,7,8,8],"right_children":[2,-1,4,6,8,10,12,14,16,-1,-1,-1,-1,-1,-1,-1,-1],"split_conditions":[-7.914031E0,4.779058E-2,8.22309E0,7.048367E1,4.9312802E2,1.1302108E-2,6.9175234E0,-3.8829636E-2,5.1189355E2,4.1557713E-3,4.441305E-2,-4.563972E-2,2.8145755E-2,5.136911E-2,-7.1607814E-3,-5.0733656E-2,-9.085567E-3],"split_indices":[12,0,18,11,14,20,18,20,17,0,0,0,0,0,0,0,0],"split_type":[0,0,0,0,0,0,0,0,0,0,0,0,0,0,0,0,0],"sum_hessian":[1.0804426E2,1.9147594E0,1.061295E2,5.4722263E1,5.1407234E1,4.5220245E1,9.502017E0,3.648243E1,1.4924806E1,4.0074295E1,5.145951E0,6.6059766E0,2.8960407E0,2.1602306E0,3.43222E1,1.0316854E1,4.607952E0],"tree_param":{"num_deleted":"0","num_feature":"24","num_nodes":"17","size_leaf_vector":"1"}},{"base_weights":[-1.0799937E-2,1.6376901E-2,-4.120351E-2,-5.0236605E-2,4.7804382E-1,-2.4024467E-1,8.9886725E-2,7.345826E-1,-3.5655633E-2,-1.989553E-2,2.2703698E-2,3.5109583E-2,-1.3233835E-4,5.0907757E-2,6.522268E-3],"categories":[],"categories_nodes":[],"categories_segments":[],"categories_sizes":[],"default_left":[0,0,0,0,0,0,0,0,0,0,0,0,0,0,0],"id":37,"left_children":[1,3,-1,5,7,9,11,13,-1,-1,-1,-1,-1,-1,-1],"loss_changes":[2.423319E0,3.2988126E0,0E0,2.5233386E0,4.656007E0,4.5764546E0,3.1072555E0,1.8576818E0,0E0,0E0,0E0,0E0,0E0,0E0,0E0],"parents":[2147483647,0,0,1,1,3,3,4,4,5,5,6,6,7,7],"right_children":[2,4,-1,6,8,10,12,14,-1,-1,-1,-1,-1,-1,-1],"split_conditions":[5.1424457E2,4.8643048E2,-4.120351E-2,2.7891614E0,1.0056426E-2,3.3865582E-2,4.3723564E0,2.2762034E0,-3.5655633E-2,-1.989553E-2,2.2703698E-2,3.5109583E-2,-1.3233835E-4,5.0907757E-2,6.522268E-3],"split_indices":[17,15,0,13,20,21,13,13,0,0,0,0,0,0,0],"split_type":[0,0,0,0,0,0,0,0,0,0,0,0,0,0,0],"sum_hessian":[1.0803135E2,1.05486206E2,2.5451422E0,9.296374E1,1.252247E1,3.9154915E1,5.3808823E1,1.0618807E1,1.9036639E0,3.225692E1,6.897998E0,6.199237E0,4.7609585E1,6.7603164E0,3.8584902E0],"tree_param":{"num_deleted":"0","num_feature":"24","num_nodes":"15","size_leaf_vector":"1"}},{"base_weights":[1.9664561E-2,-1.11516E-1,2.631398E-1,-2.4362741E-1,2.9880965E-1,5.477753E-2,1.7607608E-1,-3.010435E-1,6.644298E-1,9.312716E-1,-9.935193E-2,3.1934884E-1,-3.32801E-1,-9.742313E-3,-5.544104E-2,2.2690888E-3,4.7774166E-2,5.993833E-2,-2.4738896E-3,3.9706632E-2,-2.947021E-2,3.171644E-3,4.024311E-2,2.490714E-2,-3.099894E-2],"categories":[],"categories_nodes":[],"categories_segments":[],"categories_sizes":[],"default_left":[0,0,0,0,0,0,0,0,0,0,0,0,0,0,0,0,0,0,0,0,0,0,0,0,0],"id":38,"left_children":[1,3,5,7,9,-1,11,13,15,17,19,21,23,-1,-1,-1,-1,-1,-1,-1,-1,-1,-1,-1,-1],"loss_changes":[3.5204418E0,3.9614778E0,2.6023083E0,3.0579147E0,4.6052723E0,0E0,2.7388883E0,4.2655773E0,6.0015917E-1,1.9008722E0,5.6788764E0,3.5132058E0,2.318682E0,0E0,0E0,0E0,0E0,0E0,0E0,0E0,0E0,0E0,0E0,0E0,0E0],"parents":[2147483647,0,0,1,1,2,2,3,3,4,4,6,6,7,7,8,8,9,9,10,10,11,11,12,12],"right_children":[2,4,6,8,10,-1,12,14,16,18,20,22,24,-1,-1,-1,-1,-1,-1,-1,-1,-1,-1,-1,-1],"split_conditions":[1.0255351E0,5.0613742E2,-3.391028E0,2.1901859E-2,7.7263494E0,5.477753E-2,4.7999127E2,4.6898965E-2,3.0018935E-2,5.2534585E0,4.518671E1,3.3672116E2,9.548607E0,-9.742313E-3,-5.544104E-2,2.2690888E-3,4.7774166E-2,5.993833E-2,-2.4738896E-3,3.9706632E-2,-2.947021E-2,3.171644E-3,4.024311E-2,2.490714E-2,-3.099894E-2],"split_indices":[23,14,13,20,18,0,14,22,22,16,11,17,18,0,0,0,0,0,0,0,0,0,0,0,0],"split_type":[0,0,0,0,0,0,0,0,0,0,0,0,0,0,0,0,0,0,0,0,0,0,0,0,0],"sum_hessian":[1.0830442E2,7.073534E1,3.7569084E1,5.3814945E1,1.692039E1,2.4605548E0,3.510853E1,5.1243324E1,2.5716202E0,6.0195975E0,1.0900792E1,2.7686052E1,7.4224777E0,4.638621E1,4.857112E0,1.1920806E0,1.3795395E0,4.554957E0,1.4646404E0,3.6413035E0,7.259488E0,1.8870165E1,8.815886E0,1.7177072E0,5.7047706E0],"tree_param":{"num_deleted":"0","num_feature":"24","num_nodes":"25","size_leaf_vector":"1"}},{"base_weights":[7.2998606E-2,-6.456027E-2,3.544814E-1,4.3139076E-1,-1.7984359E-1,1.2574817E0,1.3956924E-1,-1.446158E-1,7.045483E-1,3.2934994E-1,-2.8666618E-1,6.9107644E-2,1.8364033E-2,4.144107E-1,-3.7922648E-1,3.3165064E-2,-3.217427E-2,5.6640606E-2,1.014835E-2,-7.3109022E-3,4.39194E-2,-1.9986726E-2,1.8335879E-2,-2.642935E-2,2.74076E-2,4.0254902E-2,-3.52194E-2],"categories":[],"categories_nodes":[],"categories_segments":[],"categories_sizes":[],"default_left":[0,0,0,0,0,0,0,0,0,1,0,0,0,0,0,0,0,0,0,0,0,0,0,0,0,0,0],"id":39,"left_children":[1,3,5,7,9,11,13,15,17,19,21,-1,-1,23,25,-1,-1,-1,-1,-1,-1,-1,-1,-1,-1,-1,-1],"loss_changes":[4.0075417E0,4.0782523E0,6.4102697E0,2.2246578E0,3.2209969E0,2.0254803E-1,4.226103E0,2.510422E0,1.7725105E0,2.8525586E0,3.6962237E0,0E0,0E0,2.7026412E0,4.5738773E0,0E0,0E0,0E0,0E0,0E0,0E0,0E0,0E0,0E0,0E0,0E0,0E0],"parents":[2147483647,0,0,1,1,2,2,3,3,4,4,5,5,6,6,7,7,8,8,9,9,10,10,13,13,14,14],"right_children":[2,4,6,8,10,12,14,16,18,20,22,-1,-1,24,26,-1,-1,-1,-1,-1,-1,-1,-1,-1,-1,-1,-1],"split_conditions":[1.0252731E0,5.351633E0,1.029897E0,8.5223836E-1,4.418738E1,4.2409393E2,5.868166E1,-1.2482895E-3,9.9890155E-1,-1.9664515E0,1.2834902E1,6.9107644E-2,1.8364033E-2,1.031837E0,-4.4676014E-3,3.3165064E-2,-3.217427E-2,5.6640606E-2,1.014835E-2,-7.3109022E-3,4.39194E-2,-1.9986726E-2,1.8335879E-2,-2.642935E-2,2.74076E-2,4.0254902E-2,-3.52194E-2],"split_indices":[23,16,23,19,11,15,11,20,19,13,12,0,0,23,20,0,0,0,0,0,0,0,0,0,0,0,0],"split_type":[0,0,0,0,0,0,0,0,0,0,0,0,0,0,0,0,0,0,0,0,0,0,0,0,0,0,0],"sum_hessian":[1.01908295E2,6.89725E1,3.2935787E1,1.2491561E1,5.648094E1,5.3991094E0,2.7536678E1,4.1696362E0,8.321925E0,9.433056E0,4.7047886E1,4.251118E0,1.1479912E0,1.8132084E1,9.404594E0,1.4659419E0,2.7036946E0,3.8101943E0,4.51173E0,5.4478765E0,3.9851797E0,4.043824E1,6.609645E0,1.8854734E0,1.624661E1,1.7079165E0,7.696678E0],"tree_param":{"num_deleted":"0","num_feature":"24","num_nodes":"27","size_leaf_vector":"1"}},{"base_weights":[8.673969E-3,1.9353934E-1,-1.7158628E-1,8.790759E-3,7.294705E-1,-2.9099715E-1,1.9777687E-1,2.60352E-1,-7.4044275E-1,-3.4541655E-2,9.407208E-1,5.344096E-1,-3.522825E-1,5.8495086E-1,-5.0773746E-1,4.132223E-2,-3.7164995E-4,3.4600418E-2,-5.2308418E-2,-1.5522018E-2,6.568739E-2,4.0105686E-2,1.4534084E-3,-2.9094934E-2,-4.494765E-3,-1.8517692E-2,4.9971547E-2,-4.81413E-2,8.310762E-3],"categories":[],"categories_nodes":[],"categories_segments":[],"categories_sizes":[],"default_left":[0,0,0,0,0,1,1,0,0,0,0,0,0,0,0,0,0,0,0,0,0,0,0,0,0,0,0,0,0],"id":40,"left_children":[1,3,5,7,9,11,13,15,17,-1,19,21,23,25,27,-1,-1,-1,-1,-1,-1,-1,-1,-1,-1,-1,-1,-1,-1],"loss_changes":[3.6211154E0,5.3031178E0,2.4852746E0,7.899671E0,4.7708354E0,2.3128567E0,4.1328673E0,4.7587943E0,5.3390903E0,0E0,6.185692E0,4.2314428E-1,2.3395472E0,4.1442313E0,1.8503398E0,0E0,0E0,0E0,0E0,0E0,0E0,0E0,0E0,0E0,0E0,0E0,0E0,0E0,0E0],"parents":[2147483647,0,0,1,1,2,2,3,3,4,4,5,5,6,6,7,7,8,8,10,10,11,11,12,12,13,13,14,14],"right_children":[2,4,6,8,10,12,14,16,18,-1,20,22,24,26,28,-1,-1,-1,-1,-1,-1,-1,-1,-1,-1,-1,-1,-1,-1],"split_conditions":[7.8015967E-4,6.953929E0,1.1346424E0,4.3279376E0,-4.5256197E-2,-7.752298E0,4.27112E0,5.4048276E0,-2.5891902E-2,-3.4541655E-2,7.8987575E-1,5.701615E1,1.5328742E-2,-2.6905525E0,3.7574805E2,4.132223E-2,-3.7164995E-4,3.4600418E-2,-5.2308418E-2,-1.5522018E-2,6.568739E-2,4.0105686E-2,1.4534084E-3,-2.9094934E-2,-4.494765E-3,-1.8517692E-2,4.9971547E-2,-4.81413E-2,8.310762E-3],"split_indices":[20,12,19,12,21,13,13,18,21,0,19,11,22,12,14,0,0,0,0,0,0,0,0,0,0,0,0,0,0],"split_type":[0,0,0,0,0,0,0,0,0,0,0,0,0,0,0,0,0,0,0,0,0,0,0,0,0,0,0,0,0],"sum_hessian":[1.0666775E2,5.2624836E1,5.4042915E1,3.9890133E1,1.2734702E1,4.1000187E1,1.3042727E1,3.0351786E1,9.538349E0,1.3549216E0,1.1379781E1,2.3002195E0,3.8699966E1,8.531613E0,4.5111136E0,9.076983E0,2.1274801E1,1.4554532E0,8.082896E0,2.6521258E0,8.727655E0,1.1197578E0,1.1804618E0,1.9989426E1,1.8710543E1,2.6137757E0,5.9178376E0,2.4369383E0,2.0741754E0],"tree_param":{"num_deleted":"0","num_feature":"24","num_nodes":"29","size_leaf_vector":"1"}},{"base_weights":[5.426544E-2,8.289029E-2,-4.6777066E-2,4.3209356E-1,7.893461E-3,-2.4741822E-1,6.062223E-1,3.9507926E-1,-1.13319494E-1,-3.865189E-2,2.748764E-2,3.8254134E-2,-2.3292374E-2,3.822069E-2,1.386094E-3,-6.0146896E-4,-4.1009035E-2],"categories":[],"categories_nodes":[],"categories_segments":[],"categories_sizes":[],"default_left":[0,0,0,0,0,0,0,0,0,0,0,0,0,0,0,0,0],"id":41,"left_children":[1,3,-1,5,7,9,11,13,15,-1,-1,-1,-1,-1,-1,-1,-1],"loss_changes":[3.1490412E0,2.7799273E0,0E0,2.3710177E0,4.198593E0,2.3269148E0,2.9505358E0,2.8721251E0,4.871865E0,0E0,0E0,0E0,0E0,0E0,0E0,0E0,0E0],"parents":[2147483647,0,0,1,1,3,3,4,4,5,5,6,6,7,7,8,8],"right_children":[2,4,-1,6,8,10,12,14,16,-1,-1,-1,-1,-1,-1,-1,-1],"split_conditions":[5.151571E2,4.428783E1,-4.6777066E-2,6.1819367E0,7.060945E0,-1.4598785E-2,1.7770958E1,1.3168133E-3,4.9737704E2,-3.865189E-2,2.748764E-2,3.8254134E-2,-2.3292374E-2,3.822069E-2,1.386094E-3,-6.0146896E-4,-4.1009035E-2],"split_indices":[17,11,0,16,16,22,16,20,14,0,0,0,0,0,0,0,0],"split_type":[0,0,0,0,0,0,0,0,0,0,0,0,0,0,0,0,0],"sum_hessian":[1.0740669E2,1.0527834E2,2.1283545E0,1.7770964E1,8.750738E1,3.5391312E0,1.42318325E1,2.0324915E1,6.7182465E1,2.1510782E0,1.3880529E0,1.2644506E1,1.5873256E0,9.596211E0,1.07287035E1,5.9651657E1,7.5308037E0],"tree_param":{"num_deleted":"0","num_feature":"24","num_nodes":"17","size_leaf_vector":"1"}},{"base_weights":[-2.4990186E-2,-6.529105E-1,3.8703296E-2,-3.3674917E-1,-6.1046403E-2,1.0972449E-1,-6.1216116E-1,-8.6944294E-1,2.1010345E-1,4.6479332E-1,-3.4805924E-2,-5.523574E-2,-2.2102746E-1,-5.7173826E-2,-5.830879E-3,4.1339856E-2,-2.1865556E-2,3.8322307E-2,-1.9656164E-3,-6.708685E-3,2.7106313E-2,1.7994137E-2,-3.6150567E-2],"categories":[],"categories_nodes":[],"categories_segments":[],"categories_sizes":[],"default_left":[0,0,0,0,0,0,0,0,0,0,0,0,0,0,0,0,0,0,0,0,0,0,0],"id":42,"left_children":[1,3,5,7,-1,9,11,13,15,17,19,-1,21,-1,-1,-1,-1,-1,-1,-1,-1,-1,-1],"loss_changes":[4.3489656E0,1.3868618E0,4.647873E0,2.4585848E0,0E0,4.644783E0,1.6633546E0,7.2326016E-1,2.2223225E0,4.0084796E0,3.800922E0,0E0,2.234075E0,0E0,0E0,0E0,0E0,0E0,0E0,0E0,0E0,0E0,0E0],"parents":[2147483647,0,0,1,1,2,2,3,3,5,5,6,6,7,7,8,8,9,9,10,10,12,12],"right_children":[2,4,6,8,-1,10,12,14,16,18,20,-1,22,-1,-1,-1,-1,-1,-1,-1,-1,-1,-1],"split_conditions":[4.46522E0,1.8739717E-2,7.3096306E1,1.7291614E0,-6.1046403E-2,6.47057E0,7.016927E0,2.807068E2,2.0584814E2,4.410631E0,6.6309456E1,-5.523574E-2,1.501068E1,-5.7173826E-2,-5.830879E-3,4.1339856E-2,-2.1865556E-2,3.8322307E-2,-1.9656164E-3,-6.708685E-3,2.7106313E-2,1.7994137E-2,-3.6150567E-2],"split_indices":[18,22,11,13,0,18,18,14,15,12,11,0,12,0,0,0,0,0,0,0,0,0,0],"split_type":[0,0,0,0,0,0,0,0,0,0,0,0,0,0,0,0,0,0,0,0,0,0,0],"sum_hessian":[1.07107445E2,9.012009E0,9.8095436E1,6.812814E0,2.1991947E0,8.9194145E1,8.901293E0,3.1522636E0,3.6605504E0,2.5162176E1,6.403197E1,3.1323462E0,5.7689466E0,1.930599E0,1.2216647E0,1.7328508E0,1.9276996E0,1.5416598E1,9.745577E0,5.5278522E1,8.753448E0,2.8054628E0,2.9634838E0],"tree_param":{"num_deleted":"0","num_feature":"24","num_nodes":"23","size_leaf_vector":"1"}},{"base_weights":[-6.11596E-2,-1.251836E-1,2.9575345E-1,1.4480285E-3,-3.9417648E-1,5.802345E-1,-1.8269998E-1,-1.4268267E-1,6.91955E-1,-9.668886E-1,-7.241161E-2,8.241105E-1,-1.2630743E-2,-5.9553593E-1,4.3124795E-1,-3.3556163E-2,-2.1365418E-3,4.5471158E-2,-4.4811754E-3,-6.267628E-2,-1.2996032E-2,5.687592E-2,-1.9340517E-2,4.3779383E-3,5.4606568E-2,1.1651128E-2,-5.1211376E-2,4.5764636E-2,-1.2534524E-2],"categories":[],"categories_nodes":[],"categories_segments":[],"categories_sizes":[],"default_left":[0,0,1,0,0,0,0,0,0,0,0,0,0,0,0,0,0,0,0,0,0,0,0,0,0,0,0,0,0],"id":43,"left_children":[1,3,5,7,9,11,13,15,17,19,21,23,-1,25,27,-1,-1,-1,-1,-1,-1,-1,-1,-1,-1,-1,-1,-1,-1],"loss_changes":[2.5012317E0,3.139091E0,2.3789845E0,6.4327116E0,5.365364E0,2.38393E0,2.027841E0,2.7961645E0,1.9785719E0,1.807867E0,8.035144E0,1.5864E0,0E0,1.871852E0,1.348256E0,0E0,0E0,0E0,0E0,0E0,0E0,0E0,0E0,0E0,0E0,0E0,0E0,0E0,0E0],"parents":[2147483647,0,0,1,1,2,2,3,3,4,4,5,5,6,6,7,7,8,8,9,9,10,10,11,11,13,13,14,14],"right_children":[2,4,6,8,10,12,14,16,18,20,22,24,-1,26,28,-1,-1,-1,-1,-1,-1,-1,-1,-1,-1,-1,-1,-1,-1],"split_conditions":[2.111739E1,4.943504E0,1.5285515E1,5.9700737E1,6.3483288E1,3.1877625E1,3.8488094E1,2.0601277E2,7.5915494E0,1.8793797E1,1.0174364E-3,6.574193E0,-1.2630743E-2,-2.3815041E-2,9.0639174E-1,-3.3556163E-2,-2.1365418E-3,4.5471158E-2,-4.4811754E-3,-6.267628E-2,-1.2996032E-2,5.687592E-2,-1.9340517E-2,4.3779383E-3,5.4606568E-2,1.1651128E-2,-5.1211376E-2,4.5764636E-2,-1.2534524E-2],"split_indices":[16,12,13,11,11,16,16,17,18,18,22,13,0,22,19,0,0,0,0,0,0,0,0,0,0,0,0,0,0],"split_type":[0,0,0,0,0,0,0,0,0,0,0,0,0,0,0,0,0,0,0,0,0,0,0,0,0,0,0,0,0],"sum_hessian":[1.068381E2,9.1138664E1,1.5699431E1,6.2643234E1,2.8495434E1,9.71206E0,5.9873714E0,5.248195E1,1.0161283E1,9.529263E0,1.8966171E1,7.520416E0,2.1916444E0,3.5979784E0,2.3893929E0,7.438817E0,4.5043133E1,7.8214517E0,2.3398314E0,6.2301683E0,3.2990944E0,3.3718581E0,1.5594313E1,2.3604152E0,5.1600003E0,1.3824555E0,2.215523E0,1.1973282E0,1.1920648E0],"tree_param":{"num_deleted":"0","num_feature":"24","num_nodes":"29","size_leaf_vector":"1"}},{"base_weights":[2.0834746E-2,4.3049842E-1,-3.4977112E-2,-3.7652172E-2,7.2936225E-1,-6.680527E-1,1.0653772E-2,3.6488906E-2,5.7586323E-2,1.1357056E-2,-1.1210438E0,5.42148E-1,-6.708825E-2,3.965317E-2,-2.1886734E-2,-6.787599E-2,-1.468751E-2,1.5198614E-3,3.8899925E-2,4.045244E-2,-5.158075E-3],"categories":[],"categories_nodes":[],"categories_segments":[],"categories_sizes":[],"default_left":[1,0,0,0,0,0,0,1,0,0,0,0,0,0,0,0,0,0,0,0,0],"id":44,"left_children":[1,3,5,-1,7,9,11,13,-1,-1,15,17,19,-1,-1,-1,-1,-1,-1,-1,-1],"loss_changes":[2.3202896E0,4.8519154E0,2.5971718E0,0E0,2.9487329E0,2.7054343E0,3.5326343E0,2.1063323E0,0E0,0E0,4.1927052E-1,1.2928538E0,2.4446144E0,0E0,0E0,0E0,0E0,0E0,0E0,0E0,0E0],"parents":[2147483647,0,0,1,1,2,2,4,4,5,5,6,6,7,7,10,10,11,11,12,12],"right_children":[2,4,6,-1,8,10,12,14,-1,-1,16,18,20,-1,-1,-1,-1,-1,-1,-1,-1],"split_conditions":[-4.4079432E0,2.1867374E2,-2.798882E0,-3.7652172E-2,1.016778E0,-9.391041E-3,-9.5529896E-1,-7.5929193E0,5.7586323E-2,1.1357056E-2,1.0522749E-2,1.9467834E2,4.2710958E0,3.965317E-2,-2.1886734E-2,-6.787599E-2,-1.468751E-2,1.5198614E-3,3.8899925E-2,4.045244E-2,-5.158075E-3],"split_indices":[13,15,13,0,23,20,13,13,0,0,20,15,16,0,0,0,0,0,0,0,0],"split_type":[0,0,0,0,0,0,0,0,0,0,0,0,0,0,0,0,0,0,0,0,0],"sum_hessian":[9.982326E1,1.1164143E1,8.865912E1,1.9443926E0,9.219749E0,5.0436716E0,8.361544E1,3.9031558E0,5.3165936E0,1.8621991E0,3.1814725E0,9.907533E0,7.370791E1,1.2448255E0,2.6583304E0,1.9757906E0,1.2056818E0,3.481728E0,6.425804E0,2.0674055E0,7.16405E1],"tree_param":{"num_deleted":"0","num_feature":"24","num_nodes":"21","size_leaf_vector":"1"}},{"base_weights":[-3.9011724E-2,2.4856918E-2,-7.345895E-1,-5.0740123E-2,4.4868058E-1,-8.674242E-2,-1.0955323E0,-1.2511897E-1,3.390716E-1,-9.673379E-2,7.695786E-1,3.3471227E-2,-3.9426025E-2,-6.0747605E-2,-1.76731E-2,-9.2756277E-4,-4.502871E-2,4.338727E-2,-1.8451681E-2,4.592255E-2,-2.4250755E-2,5.2877158E-2,1.0310117E-4],"categories":[],"categories_nodes":[],"categories_segments":[],"categories_sizes":[],"default_left":[0,0,0,0,0,0,0,0,0,0,0,0,0,0,0,0,0,0,0,0,0,0,0],"id":45,"left_children":[1,3,5,7,9,11,13,15,17,19,21,-1,-1,-1,-1,-1,-1,-1,-1,-1,-1,-1,-1],"loss_changes":[4.7935176E0,3.2080498E0,2.0264292E0,2.5146117E0,2.7260704E0,2.8267236E0,7.9257965E-2,5.9608803E0,5.5357804E0,3.007715E0,2.1306286E0,0E0,0E0,0E0,0E0,0E0,0E0,0E0,0E0,0E0,0E0,0E0,0E0],"parents":[2147483647,0,0,1,1,2,2,3,3,4,4,5,5,6,6,7,7,8,8,9,9,10,10],"right_children":[2,4,6,8,10,12,14,16,18,20,22,-1,-1,-1,-1,-1,-1,-1,-1,-1,-1,-1,-1],"split_conditions":[7.3096306E1,6.7692116E1,1.6730767E-2,1.582945E-2,2.4145576E2,4.7691815E2,7.549758E-2,2.5147455E-2,3.3411484E0,6.824023E1,3.6691457E-3,3.3471227E-2,-3.9426025E-2,-6.0747605E-2,-1.76731E-2,-9.2756277E-4,-4.502871E-2,4.338727E-2,-1.8451681E-2,4.592255E-2,-2.4250755E-2,5.2877158E-2,1.0310117E-4],"split_indices":[11,11,21,20,15,14,21,21,12,11,20,0,0,0,0,0,0,0,0,0,0,0,0],"split_type":[0,0,0,0,0,0,0,0,0,0,0,0,0,0,0,0,0,0,0,0,0,0,0],"sum_hessian":[1.0648885E2,9.841643E1,8.07243E0,8.426622E1,1.4150208E1,3.3320818E0,4.740348E0,7.1334175E1,1.2932041E1,5.500254E0,8.649955E0,1.6260802E0,1.7060016E0,3.534329E0,1.2060187E0,6.3615654E1,7.718523E0,7.275031E0,5.6570106E0,1.1439366E0,4.3563175E0,6.0152254E0,2.6347291E0],"tree_param":{"num_deleted":"0","num_feature":"24","num_nodes":"23","size_leaf_vector":"1"}},{"base_weights":[-3.063379E-3,-7.1174905E-2,3.010806E-1,-2.0634811E-2,-9.818503E-1,6.0967785E-1,-4.079292E-1,-1.1241746E-1,4.11483E-1,-7.950684E-3,-6.0397625E-2,-3.0556798E-2,7.6121604E-1,5.3592646E-1,-1.0151827E0,-9.357608E-3,2.7432948E-2,3.3493128E-2,-1.52018685E-2,5.1110703E-2,1.1948149E-2,4.321357E-2,-2.0007635E-3,-6.5545194E-2,-6.289072E-3],"categories":[],"categories_nodes":[],"categories_segments":[],"categories_sizes":[],"default_left":[0,0,0,0,0,0,0,0,0,0,0,0,0,0,0,0,0,0,0,0,0,0,0,0,0],"id":46,"left_children":[1,3,5,7,9,11,13,15,17,-1,-1,-1,19,21,23,-1,-1,-1,-1,-1,-1,-1,-1,-1,-1],"loss_changes":[2.2819107E0,4.120317E0,4.658964E0,3.4671607E0,6.8394995E-1,3.1375127E0,4.3910017E0,3.6563244E0,3.0369706E0,0E0,0E0,0E0,1.5679545E0,6.5526086E-1,1.0001817E0,0E0,0E0,0E0,0E0,0E0,0E0,0E0,0E0,0E0,0E0],"parents":[2147483647,0,0,1,1,2,2,3,3,4,4,5,5,6,6,7,7,8,8,12,12,13,13,14,14],"right_children":[2,4,6,8,10,12,14,16,18,-1,-1,-1,20,22,24,-1,-1,-1,-1,-1,-1,-1,-1,-1,-1],"split_conditions":[1.2323995E1,7.3096306E1,8.73715E-3,1.17469095E-2,1.0155224E0,-4.4903982E-2,1.2072001E1,7.5347304E0,4.4373624E2,-7.950684E-3,-6.0397625E-2,-3.0556798E-2,2.1946277E-2,1.0428213E0,2.1250275E1,-9.357608E-3,2.7432948E-2,3.3493128E-2,-1.52018685E-2,5.1110703E-2,1.1948149E-2,4.321357E-2,-2.0007635E-3,-6.5545194E-2,-6.289072E-3],"split_indices":[13,11,20,20,23,21,12,12,17,0,0,0,22,23,12,0,0,0,0,0,0,0,0,0,0],"split_type":[0,0,0,0,0,0,0,0,0,0,0,0,0,0,0,0,0,0,0,0,0,0,0,0,0],"sum_hessian":[1.0811916E2,8.896245E1,1.9156713E1,8.5253746E1,3.7087007E0,1.3444905E1,5.711809E0,7.092829E1,1.4325459E1,1.1665707E0,2.54213E0,1.1497186E0,1.2295186E1,2.2821367E0,3.4296725E0,6.436835E1,6.5599427E0,1.0571738E1,3.7537208E0,7.559821E0,4.7353654E0,1.1346494E0,1.1474874E0,2.218212E0,1.2114607E0],"tree_param":{"num_deleted":"0","num_feature":"24","num_nodes":"25","size_leaf_vector":"1"}},{"base_weights":[-1.6888449E-2,-2.33522E-1,1.0990207E-1,-4.9295232E-1,6.314477E-2,6.84146E-1,-3.6542714E-2,4.350919E-1,-6.252438E-1,8.366037E-1,-1.4800684E-1,1.0698825E0,-2.339903E-1,-8.7302595E-1,4.59056E-2,3.986014E-2,-8.589784E-3,2.1179851E-2,-3.5665922E-2,-4.558057E-3,5.873675E-2,2.3789892E-2,-2.8921872E-2,4.0370263E-3,6.1460584E-2,-5.193798E-2,1.4346452E-2,-5.67E-2,-5.649709E-3,3.2605194E-2,-3.21443E-3],"categories":[],"categories_nodes":[],"categories_segments":[],"categories_sizes":[],"default_left":[0,0,0,0,0,0,0,0,0,0,0,0,0,0,1,0,0,0,0,0,0,0,0,0,0,0,0,0,0,0,0],"id":47,"left_children":[1,3,5,7,9,11,13,15,17,19,21,23,25,27,29,-1,-1,-1,-1,-1,-1,-1,-1,-1,-1,-1,-1,-1,-1,-1,-1],"loss_changes":[3.0316653E0,3.1654842E0,5.8877134E0,2.9533153E0,3.3714442E0,5.2853975E0,3.936581E0,8.653381E-1,2.105804E0,1.492033E0,4.69765E0,1.5067625E0,2.4052463E0,8.8723016E-1,3.5408354E0,0E0,0E0,0E0,0E0,0E0,0E0,0E0,0E0,0E0,0E0,0E0,0E0,0E0,0E0,0E0,0E0],"parents":[2147483647,0,0,1,1,2,2,3,3,4,4,5,5,6,6,7,7,8,8,9,9,10,10,11,11,12,12,13,13,14,14],"right_children":[2,4,6,8,10,12,14,16,18,20,22,24,26,28,30,-1,-1,-1,-1,-1,-1,-1,-1,-1,-1,-1,-1,-1,-1,-1,-1],"split_conditions":[-6.0734972E-3,-6.4806174E-3,2.2747372E-3,-3.736169E-2,4.16747E1,4.8360783E-3,4.379098E-3,1.2481478E0,2.048829E2,-3.9237893E0,7.6663704E0,7.806715E-1,-3.009879E-3,1.0356752E0,-4.4079432E0,3.986014E-2,-8.589784E-3,2.1179851E-2,-3.5665922E-2,-4.558057E-3,5.873675E-2,2.3789892E-2,-2.8921872E-2,4.0370263E-3,6.1460584E-2,-5.193798E-2,1.4346452E-2,-5.67E-2,-5.649709E-3,3.2605194E-2,-3.21443E-3],"split_indices":[21,20,21,20,11,20,21,19,17,13,18,19,21,19,13,0,0,0,0,0,0,0,0,0,0,0,0,0,0,0,0],"split_type":[0,0,0,0,0,0,0,0,0,0,0,0,0,0,0,0,0,0,0,0,0,0,0,0,0,0,0,0,0,0,0],"sum_hessian":[1.0844013E2,3.972479E1,6.871534E1,2.0839418E1,1.888537E1,1.3216944E1,5.5498398E1,2.3144338E0,1.8524984E1,3.414776E0,1.5470595E1,9.190474E0,4.02647E0,4.1191006E0,5.1379295E1,1.253135E0,1.0612988E0,1.1399776E0,1.7385006E1,1.1072097E0,2.3075664E0,6.2734103E0,9.197185E0,1.4840425E0,7.7064314E0,1.1915511E0,2.834919E0,2.6999645E0,1.4191362E0,7.1466284E0,4.423267E1],"tree_param":{"num_deleted":"0","num_feature":"24","num_nodes":"31","size_leaf_vector":"1"}},{"base_weights":[2.2626625E-2,5.892643E-1,-6.5913975E-2,-5.739227E-3,8.2607335E-1,-9.290116E-1,-1.6775785E-2,5.58046E-1,-4.0878557E-2,9.38778E-1,-3.3098652E-3,-1.6992735E-2,-5.384145E-2,7.866145E-2,-4.3321335E-1,-1.3262385E-3,4.410919E-2,5.3874105E-2,-1.0621048E-3,8.064534E-3,-1.438044E-2,4.0512655E-2,-2.9329646E-2],"categories":[],"categories_nodes":[],"categories_segments":[],"categories_sizes":[],"default_left":[1,0,0,0,0,0,0,0,0,0,0,0,0,0,0,0,0,0,0,0,0,0,0],"id":48,"left_children":[1,3,5,7,9,11,13,15,-1,17,-1,-1,-1,19,21,-1,-1,-1,-1,-1,-1,-1,-1],"loss_changes":[5.316334E0,2.021915E0,3.8809376E0,2.7762098E0,1.0926504E0,6.34222E-2,3.529318E0,7.028241E-1,0E0,1.2431583E0,0E0,0E0,0E0,2.2373662E0,3.6318643E0,0E0,0E0,0E0,0E0,0E0,0E0,0E0,0E0],"parents":[2147483647,0,0,1,1,2,2,3,3,4,4,5,5,6,6,7,7,9,9,13,13,14,14],"right_children":[2,4,6,8,10,12,14,16,-1,18,-1,-1,-1,20,22,-1,-1,-1,-1,-1,-1,-1,-1],"split_conditions":[-3.15616E0,2.698359E2,-2.798882E0,-9.787796E-1,5.16419E2,-1.1251763E-2,1.6744192E1,-4.8224945E0,-4.0878557E-2,5.8871023E-2,-3.3098652E-3,-1.6992735E-2,-5.384145E-2,7.0901726E1,-8.896406E-2,-1.3262385E-3,4.410919E-2,5.3874105E-2,-1.0621048E-3,8.064534E-3,-1.438044E-2,4.0512655E-2,-2.9329646E-2],"split_indices":[13,17,13,12,14,22,18,12,0,22,0,0,0,11,22,0,0,0,0,0,0,0,0],"split_type":[0,0,0,0,0,0,0,0,0,0,0,0,0,0,0,0,0,0,0,0,0,0,0],"sum_hessian":[1.04191284E2,1.3316126E1,9.087516E1,4.0687647E0,9.247361E0,3.9305272E0,8.694463E1,2.585704E0,1.4830605E0,8.164023E0,1.0833378E0,1.450081E0,2.4804463E0,7.1394E1,1.5550637E1,1.249837E0,1.3358672E0,7.0264807E0,1.137543E0,5.8709084E1,1.2684915E1,1.2372704E0,1.4313367E1],"tree_param":{"num_deleted":"0","num_feature":"24","num_nodes":"23","size_leaf_vector":"1"}},{"base_weights":[-3.3504672E-2,-5.601616E-1,1.9335838E-2,1.8852927E-1,-9.052107E-1,6.114999E-1,-3.6499027E-2,3.891627E-2,-3.0792816E-2,1.2339909E-2,-5.981779E-2,9.077315E-1,-1.944431E-2,4.101654E-1,-1.0344146E-1,5.457176E-2,1.0814037E-2,-1.0284588E-2,4.39875E-2,-4.6992254E-2,-2.8015287E-3],"categories":[],"categories_nodes":[],"categories_segments":[],"categories_sizes":[],"default_left":[0,0,0,0,0,0,0,0,0,0,0,0,0,0,0,0,0,0,0,0,0],"id":49,"left_children":[1,3,5,7,9,11,13,-1,-1,-1,-1,15,-1,17,19,-1,-1,-1,-1,-1,-1],"loss_changes":[3.026636E0,2.7320228E0,3.3106377E0,2.3559382E0,2.6294355E0,2.909245E0,2.7881908E0,0E0,0E0,0E0,0E0,6.473923E-1,0E0,3.7005458E0,3.145838E0,0E0,0E0,0E0,0E0,0E0,0E0],"parents":[2147483647,0,0,1,1,2,2,3,3,4,4,5,5,6,6,11,11,13,13,14,14],"right_children":[2,4,6,8,10,12,14,-1,-1,-1,-1,16,-1,18,20,-1,-1,-1,-1,-1,-1],"split_conditions":[4.46522E0,2.082641E2,4.877746E0,4.2628484E0,-4.122553E-2,2.6180835E2,5.351633E0,3.891627E-2,-3.0792816E-2,1.2339909E-2,-5.981779E-2,2.0004625E-2,-1.944431E-2,1.4971048E-2,6.060182E0,5.457176E-2,1.0814037E-2,-1.0284588E-2,4.39875E-2,-4.6992254E-2,-2.8015287E-3],"split_indices":[18,17,18,18,22,14,16,0,0,0,0,21,0,13,16,0,0,0,0,0,0],"split_type":[0,0,0,0,0,0,0,0,0,0,0,0,0,0,0,0,0,0,0,0,0],"sum_hessian":[1.0736982E2,8.914888E0,9.845493E1,2.9555416E0,5.959347E0,7.6258655E0,9.082906E1,1.7239183E0,1.2316234E0,1.2329814E0,4.7263656E0,5.955082E0,1.6707835E0,1.1170209E1,7.965886E1,4.248006E0,1.7070762E0,5.0755844E0,6.0946245E0,3.2634258E0,7.639543E1],"tree_param":{"num_deleted":"0","num_feature":"24","num_nodes":"21","size_leaf_vector":"1"}},{"base_weights":[3.702145E-3,-5.341463E-1,4.929565E-2,1.4274089E-1,-4.8748933E-2,7.1804357E-1,-8.4182285E-3,-2.2692984E-2,3.6558043E-2,1.0768915E0,-1.0607622E-2,-2.1329194E-1,1.1555955E-1,6.3160025E-2,9.626315E-3,3.3385742E-2,-1.5161735E-2,4.2896993E-2,-1.4487104E-4],"categories":[],"categories_nodes":[],"categories_segments":[],"categories_sizes":[],"default_left":[0,0,0,0,0,0,0,0,0,0,0,0,0,0,0,0,0,0,0],"id":50,"left_children":[1,3,5,7,-1,9,11,-1,-1,13,-1,15,17,-1,-1,-1,-1,-1,-1],"loss_changes":[2.6310656E0,2.6412072E0,3.8206284E0,1.7990205E0,0E0,2.853272E0,2.3606699E0,0E0,0E0,7.188597E-1,0E0,2.9778104E0,5.098244E0,0E0,0E0,0E0,0E0,0E0,0E0],"parents":[2147483647,0,0,1,1,2,2,3,3,5,5,6,6,9,9,11,11,12,12],"right_children":[2,4,6,8,-1,10,12,-1,-1,14,-1,16,18,-1,-1,-1,-1,-1,-1],"split_conditions":[4.433443E0,2.1635036E2,4.749855E0,2.1571918E2,-4.8748933E-2,2.0004625E-2,-6.6743204E-3,-2.2692984E-2,3.6558043E-2,4.943504E0,-1.0607622E-2,1.0109067E0,-7.1281074E-3,6.3160025E-2,9.626315E-3,3.3385742E-2,-1.5161735E-2,4.2896993E-2,-1.4487104E-4],"split_indices":[18,14,18,14,0,21,21,0,0,12,0,23,20,0,0,0,0,0,0],"split_type":[0,0,0,0,0,0,0,0,0,0,0,0,0,0,0,0,0,0,0],"sum_hessian":[1.052186E2,7.3850217E0,9.783357E1,3.1793733E0,4.2056484E0,6.8634377E0,9.097014E1,1.6922636E0,1.4871099E0,4.838971E0,2.0244663E0,3.4024357E1,5.6945778E1,3.6431088E0,1.1958624E0,2.5567467E0,3.1467611E1,6.9770927E0,4.9968685E1],"tree_param":{"num_deleted":"0","num_feature":"24","num_nodes":"19","size_leaf_vector":"1"}},{"base_weights":[-8.8323234E-4,4.1379547E-1,-5.6054942E-2,-2.1303728E-2,6.222877E-1,-4.6065438E-1,2.2356723E-2,8.085976E-1,-1.3283103E-2,-1.2956367E0,7.9611234E-2,-1.2865293E-1,2.5980297E-1,7.792601E-3,5.480942E-2,-7.3031716E-2,-1.5677033E-2,2.9211482E-2,-3.2533105E-2,1.3281445E-2,-1.8801428E-2,3.2536864E-2,-2.0945698E-3],"categories":[],"categories_nodes":[],"categories_segments":[],"categories_sizes":[],"default_left":[0,0,0,0,0,0,0,0,0,0,0,0,0,0,0,0,0,0,0,0,0,0,0],"id":51,"left_children":[1,3,5,-1,7,9,11,13,-1,15,17,19,21,-1,-1,-1,-1,-1,-1,-1,-1,-1,-1],"loss_changes":[2.500656E0,2.5126069E0,3.0702908E0,0E0,1.9830961E0,7.1875687E0,2.9646485E0,1.5341187E0,0E0,5.5113125E-1,4.2410126E0,5.0389004E0,3.8144374E0,0E0,0E0,0E0,0E0,0E0,0E0,0E0,0E0,0E0,0E0],"parents":[2147483647,0,0,1,1,2,2,4,4,5,5,6,6,7,7,9,9,10,10,11,11,12,12],"right_children":[2,4,6,-1,8,10,12,14,-1,16,18,20,22,-1,-1,-1,-1,-1,-1,-1,-1,-1,-1],"split_conditions":[4.1463924E1,6.1819367E0,-2.1177046E-2,-2.1303728E-2,5.3587756E2,2.1919322E0,1.0223542E0,1.016778E0,-1.3283103E-2,1.2291244E0,-1.8778611E-2,1.0128995E0,3.6175265E0,7.792601E-3,5.480942E-2,-7.3031716E-2,-1.5677033E-2,2.9211482E-2,-3.2533105E-2,1.3281445E-2,-1.8801428E-2,3.2536864E-2,-2.0945698E-3],"split_indices":[11,16,21,0,14,12,23,23,0,19,22,23,12,0,0,0,0,0,0,0,0,0,0],"split_type":[0,0,0,0,0,0,0,0,0,0,0,0,0,0,0,0,0,0,0,0,0,0,0],"sum_hessian":[1.0728756E2,1.1834862E1,9.54527E1,2.1461036E0,9.688758E0,1.4704346E1,8.074835E1,8.0822935E0,1.6064641E0,5.2273355E0,9.477011E0,4.963803E1,3.1110321E1,2.943453E0,5.13884E0,4.058262E0,1.1690733E0,5.7226486E0,3.754362E0,1.9108305E1,3.0529728E1,1.3047056E1,1.8063265E1],"tree_param":{"num_deleted":"0","num_feature":"24","num_nodes":"23","size_leaf_vector":"1"}},{"base_weights":[-9.7761124E-2,3.0510148E-1,-1.4850807E-1,7.3184896E-1,-5.057781E-1,2.1869251E-1,-2.217389E-1,-1.2143701E-2,1.0566664E0,-3.9051544E-2,7.9215615E-4,-2.7986696E-1,6.0666543E-1,-7.724237E-1,-1.3945906E-1,1.7414136E-2,6.1225165E-2,1.1682148E-2,-6.126208E-2,3.979392E-2,-1.6106669E-2,-1.2146354E-2,-6.8388626E-2,1.4722581E-2,-1.2024055E-2],"categories":[],"categories_nodes":[],"categories_segments":[],"categories_sizes":[],"default_left":[0,0,0,0,0,0,0,0,0,0,0,0,0,0,0,0,0,0,0,0,0,0,0,0,0],"id":52,"left_children":[1,3,5,7,9,11,13,-1,15,-1,-1,17,19,21,23,-1,-1,-1,-1,-1,-1,-1,-1,-1,-1],"loss_changes":[2.2242644E0,4.609512E0,2.6119642E0,2.9273467E0,7.037904E-1,3.3331194E0,3.516022E0,0E0,3.4798193E-1,0E0,0E0,4.092926E0,1.9281573E0,2.875527E0,3.174311E0,0E0,0E0,0E0,0E0,0E0,0E0,0E0,0E0,0E0,0E0],"parents":[2147483647,0,0,1,1,2,2,3,3,4,4,5,5,6,6,8,8,11,11,12,12,13,13,14,14],"right_children":[2,4,6,8,10,12,14,-1,16,-1,-1,18,20,22,24,-1,-1,-1,-1,-1,-1,-1,-1,-1,-1],"split_conditions":[1.0108364E0,7.6397905E0,4.418738E1,2.1314403E-1,8.304766E0,-2.1890564E0,1.9734605E2,-1.2143701E-2,5.9732475E0,-3.9051544E-2,7.9215615E-4,-3.0837967E0,1.7364634E1,2.0508873E2,2.7773315E2,1.7414136E-2,6.1225165E-2,1.1682148E-2,-6.126208E-2,3.979392E-2,-1.6106669E-2,-1.2146354E-2,-6.8388626E-2,1.4722581E-2,-1.2024055E-2],"split_indices":[23,18,11,12,18,13,15,0,16,0,0,13,18,17,14,0,0,0,0,0,0,0,0,0,0],"split_type":[0,0,0,0,0,0,0,0,0,0,0,0,0,0,0,0,0,0,0,0,0,0,0,0,0],"sum_hessian":[1.0558138E2,1.1251036E1,9.4330345E1,7.435411E0,3.8156252E0,1.53541E1,7.897624E1,1.921521E0,5.51389E0,2.1721141E0,1.643511E0,6.841353E0,8.512748E0,9.175881E0,6.980036E1,1.6451952E0,3.8686948E0,4.921139E0,1.9202143E0,7.190935E0,1.3218125E0,5.6017704E0,3.5741112E0,1.28202E1,5.6980164E1],"tree_param":{"num_deleted":"0","num_feature":"24","num_nodes":"25","size_leaf_vector":"1"}},{"base_weights":[-4.6857618E-2,4.1443217E-1,-8.955471E-2,6.980344E-1,-1.8389812E-2,-8.609248E-1,-3.518208E-2,7.8393536E-4,8.72761E-1,-8.746854E-3,-5.3794708E-2,7.967004E-1,-9.660396E-2,5.3959943E-2,7.0090527E-3,5.4543145E-2,-3.1236315E-3,-3.7325263E-2,-2.3002024E-3],"categories":[],"categories_nodes":[],"categories_segments":[],"categories_sizes":[],"default_left":[0,0,0,0,0,0,0,0,0,0,0,0,0,0,0,0,0,0,0],"id":53,"left_children":[1,3,5,7,-1,9,11,-1,13,-1,-1,15,17,-1,-1,-1,-1,-1,-1],"loss_changes":[2.135891E0,2.2988567E0,4.0948453E0,8.3293605E-1,0E0,7.6054716E-1,4.824832E0,0E0,7.00922E-1,0E0,0E0,1.7102294E0,2.8405824E0,0E0,0E0,0E0,0E0,0E0,0E0],"parents":[2147483647,0,0,1,1,2,2,3,3,5,5,6,6,8,8,11,11,12,12],"right_children":[2,4,6,8,-1,10,12,-1,14,-1,-1,16,18,-1,-1,-1,-1,-1,-1],"split_conditions":[2.1624753E2,5.5395905E-3,4.46522E0,1.0134405E0,-1.8389812E-2,2.169421E2,4.877746E0,7.8393536E-4,9.72814E-3,-8.746854E-3,-5.3794708E-2,2.4736717E2,2.6026822E2,5.3959943E-2,7.0090527E-3,5.4543145E-2,-3.1236315E-3,-3.7325263E-2,-2.3002024E-3],"split_indices":[14,20,18,23,0,14,18,0,22,0,0,17,14,0,0,0,0,0,0],"split_type":[0,0,0,0,0,0,0,0,0,0,0,0,0,0,0,0,0,0,0],"sum_hessian":[1.05559975E2,8.205311E0,9.735467E1,6.1009893E0,2.1043217E0,5.433747E0,9.192092E1,1.465916E0,4.6350737E0,1.7292669E0,3.70448E0,5.4972053E0,8.642371E1,3.2469492E0,1.3881242E0,3.894236E0,1.602969E0,5.2492805E0,8.117443E1],"tree_param":{"num_deleted":"0","num_feature":"24","num_nodes":"19","size_leaf_vector":"1"}},{"base_weights":[2.7536599E-2,8.783E-2,-3.9946213E-1,3.164103E-2,5.572502E-1,-7.949414E-1,2.7982858E-1,-3.920948E-2,4.8467317E-1,7.891164E-1,-3.2452952E-2,4.3622144E-3,-1.0903685E0,-2.7463794E-2,4.7011588E-2,7.7796252E-3,-1.28140375E-2,-6.847629E-3,4.5029607E-2,5.0657343E-2,-1.28302425E-2,-6.366618E-2,-1.6219633E-2],"categories":[],"categories_nodes":[],"categories_segments":[],"categories_sizes":[],"default_left":[0,0,0,0,0,0,0,0,0,0,0,0,0,0,0,0,0,0,0,0,0,0,0],"id":54,"left_children":[1,3,5,7,9,11,13,15,17,19,-1,-1,21,-1,-1,-1,-1,-1,-1,-1,-1,-1,-1],"loss_changes":[2.7973216E0,2.4837778E0,3.8372216E0,2.7716181E0,3.3310192E0,2.3794045E0,3.6324227E0,3.21491E0,3.141299E0,2.3460646E0,0E0,0E0,5.1746845E-1,0E0,0E0,0E0,0E0,0E0,0E0,0E0,0E0,0E0,0E0],"parents":[2147483647,0,0,1,1,2,2,3,3,4,4,5,5,6,6,7,7,8,8,9,9,12,12],"right_children":[2,4,6,8,10,12,14,16,18,20,-1,-1,22,-1,-1,-1,-1,-1,-1,-1,-1,-1,-1],"split_conditions":[5.8871023E-2,3.5493705E-2,1.9185983E-2,1.0421624E0,2.248454E-2,-5.4891007E-3,2.9060663E2,1.017277E0,-1.6001286E-2,3.983543E2,-3.2452952E-2,4.3622144E-3,1.0872371E-2,-2.7463794E-2,4.7011588E-2,7.7796252E-3,-1.28140375E-2,-6.847629E-3,4.5029607E-2,5.0657343E-2,-1.28302425E-2,-6.366618E-2,-1.6219633E-2],"split_indices":[22,22,20,23,20,20,15,23,20,15,0,0,20,0,0,0,0,0,0,0,0,0,0],"split_type":[0,0,0,0,0,0,0,0,0,0,0,0,0,0,0,0,0,0,0,0,0,0,0],"sum_hessian":[1.062913E2,9.383574E1,1.2455558E1,8.475775E1,9.077986E0,7.7647257E0,4.6908326E0,7.408493E1,1.0672825E1,7.9044952E0,1.1734903E0,2.1247163E0,5.6400094E0,2.1543818E0,2.5364509E0,3.9194557E1,3.4890373E1,4.54727E0,6.1255546E0,6.535508E0,1.3689868E0,4.0179567E0,1.6220524E0],"tree_param":{"num_deleted":"0","num_feature":"24","num_nodes":"23","size_leaf_vector":"1"}},{"base_weights":[2.9971613E-2,-4.5386154E-2,4.9422298E-2,7.63141E-2,-6.6342235E-1,3.4758753E-1,-2.6605017E-3,-4.4396453E-2,-1.388058E-3,3.1602617E-2,-6.800692E-3,-4.7821216E-3,1.8069873E-2],"categories":[],"categories_nodes":[],"categories_segments":[],"categories_sizes":[],"default_left":[0,0,0,0,0,0,0,0,0,0,0,0,0],"id":55,"left_children":[1,-1,3,5,7,9,11,-1,-1,-1,-1,-1,-1],"loss_changes":[1.9686338E0,0E0,2.0496764E0,2.1730242E0,5.310837E-1,3.2319562E0,2.7263463E0,0E0,0E0,0E0,0E0,0E0,0E0],"parents":[2147483647,0,0,2,2,3,3,4,4,5,5,6,6],"right_children":[2,-1,4,6,8,10,12,-1,-1,-1,-1,-1,-1],"split_conditions":[3.8400612E0,-4.5386154E-2,5.1424457E2,-2.3446849E-2,-1.4973531E-3,4.2125305E2,1.6267905E-2,-4.4396453E-2,-1.388058E-3,3.1602617E-2,-6.800692E-3,-4.7821216E-3,1.8069873E-2],"split_indices":[18,0,17,22,20,17,20,0,0,0,0,0,0],"split_type":[0,0,0,0,0,0,0,0,0,0,0,0,0],"sum_hessian":[1.0447687E2,1.1950893E0,1.0328178E2,1.00387634E2,2.8941424E0,2.1868675E1,7.851896E1,1.845484E0,1.0486583E0,1.3576004E1,8.292672E0,6.3132053E1,1.5386905E1],"tree_param":{"num_deleted":"0","num_feature":"24","num_nodes":"13","size_leaf_vector":"1"}},{"base_weights":[-3.7882183E-2,-2.2123948E-1,1.2026181E-1,-8.6372656E-1,-8.552911E-2,4.6316007E-1,-6.917801E-2,-5.644821E-2,-3.7520647E-1,-1.1254937E-3,-5.900078E-2,-5.0796145E-1,6.690101E-1,4.1680342E-1,-3.1380138E-1,-4.143975E-2,1.0678967E-2,-3.5857257E-2,4.3033487E-3,-4.2146716E-2,8.92899E-3,4.828105E-2,8.0031315E-3,3.6640104E-2,-9.150372E-3,-4.3178137E-2,7.8096363E-4],"categories":[],"categories_nodes":[],"categories_segments":[],"categories_sizes":[],"default_left":[0,0,0,0,0,0,0,0,0,0,0,0,0,0,0,0,0,0,0,0,0,0,0,0,0,0,0],"id":56,"left_children":[1,3,5,7,9,11,13,-1,15,17,-1,19,21,23,25,-1,-1,-1,-1,-1,-1,-1,-1,-1,-1,-1,-1],"loss_changes":[2.9848356E0,4.076087E0,3.6322656E0,6.3765574E-1,3.7312527E0,4.308579E0,4.478355E0,0E0,1.3467238E0,2.4661696E0,0E0,1.0797791E0,2.3834348E0,2.5363464E0,4.522255E0,0E0,0E0,0E0,0E0,0E0,0E0,0E0,0E0,0E0,0E0,0E0,0E0],"parents":[2147483647,0,0,1,1,2,2,3,3,4,4,5,5,6,6,8,8,9,9,11,11,12,12,13,13,14,14],"right_children":[2,4,6,8,10,12,14,-1,16,18,-1,20,22,24,26,-1,-1,-1,-1,-1,-1,-1,-1,-1,-1,-1,-1],"split_conditions":[1.0183154E0,2.3973935E2,1.1213659E1,1.0142089E0,5.134749E-2,3.9356537E1,4.9142628E1,-5.644821E-2,1.4971048E-2,-4.8224945E0,-5.900078E-2,4.933061E2,4.5643506E2,1.7199423E1,1.7199423E1,-4.143975E-2,1.0678967E-2,-3.5857257E-2,4.3033487E-3,-4.2146716E-2,8.92899E-3,4.828105E-2,8.0031315E-3,3.6640104E-2,-9.150372E-3,-4.3178137E-2,7.8096363E-4],"split_indices":[23,14,16,23,22,11,11,0,13,12,0,14,14,16,16,0,0,0,0,0,0,0,0,0,0,0,0],"split_type":[0,0,0,0,0,0,0,0,0,0,0,0,0,0,0,0,0,0,0,0,0,0,0,0,0,0,0],"sum_hessian":[1.0101896E2,4.6595566E1,5.4423393E1,7.1903157E0,3.940525E1,1.8853127E1,3.5570267E1,3.8104684E0,3.3798473E0,3.751336E1,1.891893E0,3.04069E0,1.5812437E1,1.1674079E1,2.3896187E1,1.6788565E0,1.7009907E0,3.2879605E0,3.42254E1,1.8904938E0,1.1501961E0,9.42331E0,6.389127E0,7.500739E0,4.17334E0,8.346117E0,1.5550069E1],"tree_param":{"num_deleted":"0","num_feature":"24","num_nodes":"27","size_leaf_vector":"1"}},{"base_weights":[9.4965465E-2,6.4431536E-1,5.0904993E-2,6.5872215E-2,-7.029325E-2,4.9818438E-2,1.7013164E-2,4.582625E-2,-6.537443E-1,-3.603596E-1,8.092604E-2,-4.527151E-3,-4.808804E-2,-3.0768244E-2,8.951975E-3,-5.8203156E-4,2.1232061E-2],"categories":[],"categories_nodes":[],"categories_segments":[],"categories_sizes":[],"default_left":[0,0,0,0,0,0,1,0,1,0,0,0,0,0,0,0,0],"id":57,"left_children":[1,3,5,-1,7,-1,9,-1,11,13,15,-1,-1,-1,-1,-1,-1],"loss_changes":[2.538245E0,3.84512E0,3.1688168E0,0E0,3.3244228E0,0E0,2.3686295E0,0E0,5.3019094E-1,2.06775E0,2.6700633E0,0E0,0E0,0E0,0E0,0E0,0E0],"parents":[2147483647,0,0,1,1,2,2,4,4,6,6,8,8,9,9,10,10],"right_children":[2,4,6,-1,8,-1,10,-1,12,14,16,-1,-1,-1,-1,-1,-1],"split_conditions":[6.873144E-1,-1.2482895E-3,-7.6428714E0,6.5872215E-2,5.735481E0,4.9818438E-2,-2.798882E0,4.582625E-2,-4.8362374E0,2.3926605E-2,1.1467345E0,-4.527151E-3,-4.808804E-2,-3.0768244E-2,8.951975E-3,-5.8203156E-4,2.1232061E-2],"split_indices":[19,20,12,0,18,0,13,0,13,22,19,0,0,0,0,0,0],"split_type":[0,0,0,0,0,0,0,0,0,0,0,0,0,0,0,0,0],"sum_hessian":[1.0522122E2,6.801098E0,9.842012E1,3.06779E0,3.7333076E0,2.4231865E0,9.599693E1,1.1750395E0,2.5582683E0,1.3231776E1,8.276516E1,1.3619424E0,1.1963258E0,8.888726E0,4.3430505E0,6.596588E1,1.6799278E1],"tree_param":{"num_deleted":"0","num_feature":"24","num_nodes":"17","size_leaf_vector":"1"}},{"base_weights":[-2.5600484E-2,-7.760205E-1,5.1944056E-3,-1.3059683E-2,-5.4579772E-2,2.7859494E-2,-3.4735233E-2,-3.5801933E-3,5.707289E-1,2.323175E-2,-1.8455671E-3,-6.980946E-3,5.2635152E-2],"categories":[],"categories_nodes":[],"categories_segments":[],"categories_sizes":[],"default_left":[0,0,0,0,0,0,0,0,0,0,0,0,0],"id":58,"left_children":[1,3,5,-1,-1,7,-1,9,11,-1,-1,-1,-1],"loss_changes":[2.4025915E0,3.8068318E-1,1.6167033E0,0E0,0E0,1.6831667E0,0E0,1.4856789E0,1.9952033E0,0E0,0E0,0E0,0E0],"parents":[2147483647,0,0,1,1,2,2,5,5,7,7,8,8],"right_children":[2,4,6,-1,-1,8,-1,10,12,-1,-1,-1,-1],"split_conditions":[1.0086125E0,4.9312802E2,5.151571E2,-1.3059683E-2,-5.4579772E-2,5.1189355E2,-3.4735233E-2,1.0105444E0,1.0142089E0,2.323175E-2,-1.8455671E-3,-6.980946E-3,5.2635152E-2],"split_indices":[23,14,17,0,0,17,0,23,23,0,0,0,0],"split_type":[0,0,0,0,0,0,0,0,0,0,0,0,0],"sum_hessian":[1.0279288E2,3.098084E0,9.969479E1,1.8719203E0,1.2261636E0,9.749769E1,2.1971085E0,9.309934E1,4.3983417E0,5.3271337E0,8.777221E1,2.0650814E0,2.3332603E0],"tree_param":{"num_deleted":"0",